tree
version=v4
num_class=1
num_tree_per_iteration=1
label_index=0
max_feature_idx=365
objective=regression
feature_names=Column_0 Column_1 Column_2 Column_3 Column_4 Column_5 Column_6 Column_7 Column_8 Column_9 Column_10 Column_11 Column_12 Column_13 Column_14 Column_15 Column_16 Column_17 Column_18 Column_19 Column_20 Column_21 Column_22 Column_23 Column_24 Column_25 Column_26 Column_27 Column_28 Column_29 Column_30 Column_31 Column_32 Column_33 Column_34 Column_35 Column_36 Column_37 Column_38 Column_39 Column_40 Column_41 Column_42 Column_43 Column_44 Column_45 Column_46 Column_47 Column_48 Column_49 Column_50 Column_51 Column_52 Column_53 Column_54 Column_55 Column_56 Column_57 Column_58 Column_59 Column_60 Column_61 Column_62 Column_63 Column_64 Column_65 Column_66 Column_67 Column_68 Column_69 Column_70 Column_71 Column_72 Column_73 Column_74 Column_75 Column_76 Column_77 Column_78 Column_79 Column_80 Column_81 Column_82 Column_83 Column_84 Column_85 Column_86 Column_87 Column_88 Column_89 Column_90 Column_91 Column_92 Column_93 Column_94 Column_95 Column_96 Column_97 Column_98 Column_99 Column_100 Column_101 Column_102 Column_103 Column_104 Column_105 Column_106 Column_107 Column_108 Column_109 Column_110 Column_111 Column_112 Column_113 Column_114 Column_115 Column_116 Column_117 Column_118 Column_119 Column_120 Column_121 Column_122 Column_123 Column_124 Column_125 Column_126 Column_127 Column_128 Column_129 Column_130 Column_131 Column_132 Column_133 Column_134 Column_135 Column_136 Column_137 Column_138 Column_139 Column_140 Column_141 Column_142 Column_143 Column_144 Column_145 Column_146 Column_147 Column_148 Column_149 Column_150 Column_151 Column_152 Column_153 Column_154 Column_155 Column_156 Column_157 Column_158 Column_159 Column_160 Column_161 Column_162 Column_163 Column_164 Column_165 Column_166 Column_167 Column_168 Column_169 Column_170 Column_171 Column_172 Column_173 Column_174 Column_175 Column_176 Column_177 Column_178 Column_179 Column_180 Column_181 Column_182 Column_183 Column_184 Column_185 Column_186 Column_187 Column_188 Column_189 Column_190 Column_191 Column_192 Column_193 Column_194 Column_195 Column_196 Column_197 Column_198 Column_199 Column_200 Column_201 Column_202 Column_203 Column_204 Column_205 Column_206 Column_207 Column_208 Column_209 Column_210 Column_211 Column_212 Column_213 Column_214 Column_215 Column_216 Column_217 Column_218 Column_219 Column_220 Column_221 Column_222 Column_223 Column_224 Column_225 Column_226 Column_227 Column_228 Column_229 Column_230 Column_231 Column_232 Column_233 Column_234 Column_235 Column_236 Column_237 Column_238 Column_239 Column_240 Column_241 Column_242 Column_243 Column_244 Column_245 Column_246 Column_247 Column_248 Column_249 Column_250 Column_251 Column_252 Column_253 Column_254 Column_255 Column_256 Column_257 Column_258 Column_259 Column_260 Column_261 Column_262 Column_263 Column_264 Column_265 Column_266 Column_267 Column_268 Column_269 Column_270 Column_271 Column_272 Column_273 Column_274 Column_275 Column_276 Column_277 Column_278 Column_279 Column_280 Column_281 Column_282 Column_283 Column_284 Column_285 Column_286 Column_287 Column_288 Column_289 Column_290 Column_291 Column_292 Column_293 Column_294 Column_295 Column_296 Column_297 Column_298 Column_299 Column_300 Column_301 Column_302 Column_303 Column_304 Column_305 Column_306 Column_307 Column_308 Column_309 Column_310 Column_311 Column_312 Column_313 Column_314 Column_315 Column_316 Column_317 Column_318 Column_319 Column_320 Column_321 Column_322 Column_323 Column_324 Column_325 Column_326 Column_327 Column_328 Column_329 Column_330 Column_331 Column_332 Column_333 Column_334 Column_335 Column_336 Column_337 Column_338 Column_339 Column_340 Column_341 Column_342 Column_343 Column_344 Column_345 Column_346 Column_347 Column_348 Column_349 Column_350 Column_351 Column_352 Column_353 Column_354 Column_355 Column_356 Column_357 Column_358 Column_359 Column_360 Column_361 Column_362 Column_363 Column_364 Column_365
feature_infos=[-3.1568204197300025:1.5650077434825413] [-1.9577371154111876:7.4877252255809097] [-1.9668194971933:5.078576542384873] [-1.258460562212073:3.1564213422189606] [-1.3156549300349283:3.6747876517721125] [-2.5179159846528023:4.1498722114949018] [-1.2304445330621301:2.3907952376855084] [-1.2438266073348487:3.4413122253412474] [-1.288050060808142:3.2855249481184643] [-1.8955665583991963:3.0729750685531547] [-3.3054837390117475:3.8291455816931146] [-2.0585251770205857:13.389666596606936] [-1.2308724271343878:9.8003014829162964] [-1.079353263720926:12.759203104382356] [-2.8190408028879044:5.0805938307042533] [-11.520402000885532:3.7886555678754612] none none [-1.1771811373109713:6.8171142005264542] [-1.3519004318874381:6.454882498079737] [-1.2659450779674986:9.3761429443476665] [-2.6180563457880943:3.8732084303269576] [-3.6398351066771037:3.9488258672326735] none [-2.7073300430258049:4.2598746285793281] [-2.10488235415681:4.3362186692343885] [-2.9499590282237809:5.1763293958149843] [-0.98316330946956043:2.0313117343503246] [-2.8313163257463088:4.6986445859822688] [-2.4650768221187409:6.8008269816556721] [-2.4715508554803787:7.3936645350821228] [-0.91827548712074558:2.6798641655631661] [-2.2827383234720111:6.350025223905944] [-2.6701169373469158:4.5307043045246402] [-1.9897358571270498:7.1591780110337675] [-3.0942033950309309:2.4737232282716151] [-1.0854265024249985:7.4663251420663883] [-1.3343719216161389:1.7749185450330178] [-1.6156096695703119:3.1473080518772805] [-1.75218704141227:5.837182961818967] [-6.1822861441068993:2.9056068807919084] [-4.4738342561246656:23.553445894468972] [-0.87680981329842334:9.4646979572396717] [-2.0160264485589243:1.4619119680227073] [-0.55999844560175693:7.3895019255296859] [-0.49833070185222006:15.111843232329035] [-1.0150155007287447:9.3073895466465171] [-1.8669630243334454:12.878171148116953] [-1.3335840530116925:2.9838159817380978] [-1.0102274778864955:1.8545098563118994] [-1.4744208443714455:3.5751113813898328] [-1.2712472019786067:13.981359860052763] [-9.5599122851824951:0.34611678274421964] [-1.7067134848426666:3.3471565866501214] [-1.3225668065331437:8.1585613968514341] [-2.2834120069979562:3.1857573701769124] [-3.0305866861396726:1.9967081644098694] [-1.6712648618453287:1.9584567278262719] [-1.2982796041454228:7.1725464691898315] [-2.7144832395376808:4.4838076648376592] [-4.2801922241753871:1.0039484439240958] [-1.0070953924647894:2.1241629269403228] [-1.5736303156369571:5.0502174594042337] [-1.759465313181225:11.076197025736375] [-3.940320970829513:0.83946013065590586] [-1.0644304534849391:2.0885467881525637] [-1.6819547753749238:6.4511910964618] [-1.110184801718012:13.096772349776229] [-5.4869398875362094:2.8178754099657288] [-1.4425421683350634:1.3181394558826445] [-1.676609889601294:4.3396482012748914] [-1.8176665561172554:6.2429467700209962] [-5.6664588427996385:5.8823971517960461] [-1.5185677989130286:1.4546798300343269] [-1.42717746568805:3.5733349473351703] [-1.1529403636772853:8.3993291122837466] [-13.659184031348927:0.30029866697502255] [-1.4833458761686742:1.7531143297020302] [-1.3351300765081291:3.7658155405874503] [-1.7004001491433449:7.8415497331491624] [-11.47688865457407:0.33984628956339824] [-1.0512848156278205:1.8647302667393062] [-1.4375183645564367:3.5446056945130215] [-1.0403636498571418:12.343520855889199] [-9.2466587639491458:0.34775184332688897] [-1.3486796980730205:1.581548415977007] [-1.4568324778557298:3.91165233421692] [-2.1729377346863203:5.710059801311842] [-9.2774600329669585:3.2850396973040543] [-1.2922382549274158:1.7290370429913322] [-1.5211100549745336:3.8348245950862432] [-1.1254689934065338:9.7024346778663606] [-8.4906832642876289:5.0445704653092429] [-2.9357803643223623:1.7589633549743282] [-1.4779321937087631:6.3771927453526969] [-1.9792832259193309:3.1956158737932485] [-2.7152466495175971:4.2021443884845491] [-1.067217918676769:1.7599848073564637] [-1.5716526969077864:3.7591934758272418] [-0.89335475860050473:13.46741141750752] [-9.706032335840268:0.33719858134517949] [-1.4570491252701394:1.6640196347245055] [-1.6094279117482391:3.9187445107977084] [-1.7890303793297511:8.9553112608864307] [-9.9987424056203373:3.8011092323530415] [-1.2812705899803658:1.7144411041379901] [-1.6333433929037158:3.6370697376966281] [-1.192185952821182:10.594538314989521] [-9.9754407580304605:1.4850627093228899] [-0.80383362196995534:8.3467856275442802] [-0.97114754524285618:12.922592035343023] [-0.6599384685053189:14.161154713852358] [-1.4655156965207883:6.4165005488142128] [-1.4904417278793458:5.2491138830262942] [-1.8214689351431437:6.5829708848059303] [-2.1837573059641326:7.0293045243020211] [-1.9220983052812242:6.5391417573401363] [-1.0739889689881217:5.8548276245270809] [-1.212594039093625:3.157568995774382] [-1.472638569929732:3.6754529084384373] [-2.5874666169974256:4.1612063879303589] [-1.2047294002667039:2.3913012506150273] [-1.1554465943214247:3.4400687252421611] [-1.2678908781699461:3.2897282942537811] [-1.8914773088988801:3.0540557074588586] [-3.711460719958859:3.8666390482891488] [-2.0727609720225204:13.409161285736355] [-1.0953577348932622:12.996313822522033] [-1.1403787388999562:12.733249904994016] [-2.8571647950516561:5.1378372639037666] [-11.573926141487055:3.4322424699039429] [-0.073554824979277664:35.005495837981833] none [-1.1636612448468506:7.0377319028735013] [-1.3150924503973227:6.5364004748588274] [-1.2269826585055701:9.5043158981911748] [-2.6229678863301169:3.9129522478339251] [-3.6563114879315681:4.0140091393747639] none [-2.6367785727770201:4.3479675788757515] [-2.0757739420637549:4.5034653309767885] [-2.9988201178308591:4.7020682473203044] [-1.0495340065156253:2.1167836547320955] [-2.7844792033666064:4.8395655982349384] [-2.4244032251121266:6.9677221310681325] [-2.6587810257504416:6.2633298876194106] [-0.97413181054739983:5.3806922178954295] [-2.3881315121067774:6.5698799699130168] [-5.6993446084737158:4.0770484622503398] [-2.1777772842174561:6.3410909650584841] [-3.1247606387603959:2.4223615989102973] [-1.1683708277482436:7.5545926236473093] [-1.326544980771498:1.7751141500771901] [-1.6179464652119246:3.069880311420762] [-1.7957882715333828:5.8098648432473885] [-5.6590847218036862:2.9967380013092386] [-10.873449910108334:10.210780976486413] [-0.89990535493705048:6.9687379331127595] [-2.0993535296306773:1.444158959101548] [-0.55471035274316505:7.5129565868092527] [-0.49395108356008993:15.105364729226375] [-1.0157311992086344:9.672956792555345] [-1.6935020863301791:14.358651620691758] [-1.3283224224208368:3.0877399082665589] [-0.99849931354147492:1.854897169542205] [-1.454595320948662:3.5888845432317606] [-1.2991563370159336:13.800497204036404] [-7.9441617490069936:0.39667652525653208] [-1.70720134179928:3.3145206189282206] [-1.3326776700761225:8.1668194019929192] [-2.3477189767199418:3.3159488528476264] [-2.9792564530835177:2.0377294157188435] [-1.665386597241119:1.959055228087381] [-1.2967366166785912:7.1821202034190446] [-2.7288135256734063:4.2670683011639783] [-4.1866516115247538:0.97498044167855968] [-1.0092027496897393:2.1242551137525547] [-1.5198763137718307:5.0654934084609371] [-1.7362572073597389:10.650082863933015] [-3.7093969047302262:0.87501969773178312] [-1.0624876972185247:1.8382393825830499] [-1.5758230762780714:6.7000205121272671] [-1.1296366586448927:12.868933462365964] [-4.9531679206981059:2.8412107843043444] [-1.4358913725524551:1.3183876771019252] [-1.5442529560335909:4.1561026855843215] [-1.8394920246669249:6.1403557749220017] [-5.0022574480604485:5.8571271619480534] [-1.5077819371008918:1.4551860371937955] [-1.4271478432938738:3.4690544217762262] [-1.1794741520847403:8.2062451923381392] [-10.883542095832476:0.35588585750486373] [-1.471371545795217:1.7536850546771321] [-1.3342170551561618:3.7133695149304149] [-1.7278684701483873:7.6667109808827512] [-9.3591148177176748:0.39086073690139517] [-1.0395426435614663:1.8650573236274444] [-1.4374391692791426:3.4930010772011393] [-1.0807781733295181:12.227158498687354] [-7.6900236801905084:0.39792804887033789] [-1.3488853349920908:1.5819002964989912] [-1.4069360666141555:3.7386117648182968] [-2.2060342799803281:5.6483503950732645] [-8.293687174316517:3.0941070091948579] [-1.286128564115208:1.7293980605870247] [-1.4045006187085354:3.6607847719005924] [-1.3772266389739247:9.5406784142040468] [-7.254396491008273:4.8142761381349484] [-2.9492080222271366:1.7522041947185707] [-1.4598303198657425:6.1950314923429133] [-2.0104911434757367:2.9662835266007961] [-2.5536395018246201:4.2768548674065121] [-1.0674377967779436:1.7603568512510277] [-1.5384136246130613:3.5831768011663927] [-0.91283392371370431:13.196820220020241] [-8.0407620289777242:0.38956358456046658] [-1.4508778969652054:1.6644120211960225] [-1.5070461867957017:3.7386891768229629] [-1.8015986560208057:8.802001315190541] [-8.3697439279191101:3.5625830883542307] [-1.2790357697932351:1.7148306655766103] [-1.5272434310588596:3.6505156874039448] [-1.2080754642831957:10.355700231704448] [-8.361641450220036:1.4429652650580516] [-0.5311621723909572:8.161590969785177] [-0.96120750064061156:13.053708934159511] [-0.67619850841294904:14.342151732106785] [-0.84750371644229272:4.1093264284486697] [-0.93541763795178878:4.1796413485281549] [-1.1120469108204987:4.6507208538134206] [-1.1413104689253049:4.5713094293669174] [-1.0263391773756576:4.0396561372038784] [-0.70734694747274185:3.7951585241033596] [-1.2157622074049457:3.1634362684438897] [-1.3633728380729262:3.6917464335959971] [-2.6554341388764469:4.9604487106258404] [-1.1791378727349227:2.3914664524343938] [-1.1581440710081345:3.4433682882253072] [-1.2715468684838771:3.2978269477126894] [-1.9666567973413753:3.0450169539108294] [-3.4567402917457652:3.4365090056518817] [-2.1196929915719522:13.710148489635882] [-1.067869110318002:11.227447510724502] [-1.3368601360741743:13.984219777911511] [-2.8822581557575782:5.1817115745749751] [-10.548024401738603:3.1273280658428395] [-0.1173481730450763:22.752795327095107] [-16.973308371289093:0.11708684776905451] [-1.1403758045449095:7.1760834622079699] [-1.3008636730719105:6.572732040480961] [-1.2367431255464796:9.6511519059711741] [-2.5037613861752432:3.9556245212548542] [-3.6382443185344768:4.0520675467015561] [-0.93540009907541699:21.190783583565302] [-2.7674122504394587:4.4283330769255755] [-2.0850464114465255:3.8607666218217225] [-3.0129051649747045:4.7752906055437458] [-1.1271792390522128:2.279383380376097] [-2.8799691551083955:4.9656702940576096] [-2.4830266193111883:5.0498536761693673] [-2.7817157611569074:5.2821356777070623] [-1.0430276524320818:5.2715558244881402] [-2.4726737319091527:6.899325202365044] [-6.2301347294228018:4.0840372001200462] [-1.8890230429968742:6.3595199721430724] [-3.15163411622486:2.3417822635814596] [-1.1361711840947706:7.5784401992856356] [-1.3267883225559567:1.7754900695118019] [-1.616159129334499:2.969523142112807] [-1.7891858915368495:5.7021412396571085] [-5.5549440990713785:2.6699473519085126] [-12.204314178325825:10.42602128844435] [-0.90027239422407368:7.0533098330041639] [-2.1728421008422205:1.4192133843146963] [-0.55614495958745924:7.560352217004942] [-0.49445176748133923:15.061751067203371] [-0.9871744648503743:9.8253410735461024] [-1.5831750398182975:15.639970296720172] [-1.3115748177056024:3.2025089712044936] [-0.99975489702116638:1.8552106254741405] [-1.4492958342538875:3.4382803178546331] [-1.3066556465054098:13.186124418723322] [-7.6880881150825493:0.4558506523765799] [-1.7047448289623528:3.3155061140879614] [-1.3577683183438465:8.1975328668341447] [-2.3722002487983338:3.3683613851772969] [-2.9147390732174863:2.0811366303890675] [-1.6732298196203572:1.9590075342637605] [-1.2943302691747089:7.2149656678958616] [-2.7813081381035878:4.3719012179825461] [-4.0060591338555085:1.0161052645855129] [-1.0050019838367226:2.1242840022196439] [-1.5138351056189234:5.0727633973644428] [-1.658460371418307:9.7833017186800681] [-3.6869273408307772:0.92111878231791655] [-1.0614054249150902:1.768061233028801] [-1.5699582097392271:6.6691908759129408] [-1.1374679190864252:12.352503529268072] [-5.1755777557542464:2.8779986950763887] [-1.4426851780135574:1.3185338250677066] [-1.5396396063134903:4.0527414243191044] [-1.8501630164053189:5.9486351456094235] [-5.1763920575892541:5.7915046970227708] [-1.508847673182051:1.4554775824092341] [-1.4240682717706754:3.3195125798938712] [-1.196766194650839:7.7835194836660868] [-10.370354312634422:0.41351871715286659] [-1.4720989987959991:1.7541869392140021] [-1.3321240205317342:3.5682555413900938] [-1.733654419663365:7.3004748304472917] [-9.1641859194041988:0.44709450183816984] [-1.0408352668130114:1.8653659141477397] [-1.4320870431490049:3.3458671783970377] [-1.104180869309765:11.727066139390171] [-7.5200268674297037:0.45752072303588626] [-1.3370476992952085:1.5821515254053073] [-1.4048546916585236:3.6404080445317679] [-2.2123255395592483:5.5003657804837998] [-7.3053728008440677:2.8413244069908914] [-1.2849778350358316:1.7297714620076732] [-1.4004705847939625:3.5602539861439975] [-1.1744001345765018:9.2164078278457193] [-7.1453046975316132:4.5211924640080525] [-2.9718318662483423:1.7522913959889834] [-1.4228385142664213:6.1071359305733441] [-2.0430205874199356:2.9258255416308248] [-2.5144714006632096:4.3829624361049735] [-1.0676478899447031:1.7606395328946451] [-1.5350121557633323:3.4799712053888578] [-0.92651701629671612:12.637783218177628] [-7.7046053620619315:0.44887457571486294] [-1.4493521068028363:1.6646916334081623] [-1.5037289661350575:3.6349077150716691] [-1.8214928973813158:8.5623511289762959] [-8.0003968742018703:3.2860987862343909] [-1.2775672289000992:1.7151586453413858] [-1.5236796479081578:3.4983049829952955] [-1.2246521070021792:10.039280031454132] [-7.9275796504381049:1.3854751050133403] [-0.49574116927317768:6.7423537802101112] [-0.93894330045563146:13.117174837687147] [-0.68676774199811075:14.173363242263376] [-0.76016564281791754:3.4000454325934046] [-0.82330413809258574:3.6511148689677388] [-0.90378230897200729:3.918392316801282] [-0.93038595774405908:3.635434273725747] [-0.81809807138485269:3.3218253736648351] [-0.68657510074115979:3.0688964853450855] [-0.86736501387846299:8.7384510205853836] [-0.83179790922306995:10.90124946604733] [-1.1015990768426869:16.837149528829791] [-1.7584580690664013:6.2579255411171726] [-1.4360995475825944:5.5185303458905084] [-1.4517305647219518:5.3665750562065151] [-0.51348702559181447:8.229207855225166] [-0.51298571706511042:12.64275889569096] [-0.8514087513516081:10.681366637372113] [-0.9712999645154311:4.500657118181981] [-0.93177213514667556:5.0248119768773964] [-0.92792162138608125:4.3602079324170431] [-0.49384789582514843:7.3996598100418804] [-0.47430468055653846:9.0061983124827876] [-0.78236160966091584:6.3129580390655873] [-0.78401318841734868:3.4891540657030564] [-0.82410030325574446:3.928672113007436] [-0.83048383399514303:3.5875308914940742]
tree_sizes=2763 2900 2891 2941 2910 2926 2921 2923 2935 2911 2956 2937 2958 2927 2945 2953 2968 2977 2952 2932 2932 2978 2960 2951 2945 2961 2975 2954 2951 2978 2977 2966 2967 2941 2975 2978 2973 2952 2965 2956 2978 2962 2979 2958 2978 2941 2983 2983 2969 2962 2959 2958 3004 2969 2958 2996 2951 2982 2967 2985 2972 2976 2986 2986 2984 2990 2999 2996 2972 2977 2988 2998 2999 2991 2985 2966 2992 2984 2973 2997 2983 2986 2952 2988 2983 2987 3023 3004 2989 2990 3025 2967 2984 3018 3003 3013 2969 2990 2968 2971

Tree=0
num_leaves=31
num_cat=0
split_feature=196 122 2 348 290 251 323 283 111 65 19 14 5 94 359 252 292 62 288 353 301 8 245 57 337 13 156 219 0 1
split_gain=1.20182 0.818328 0.569237 0.575123 0.484773 0.387322 0.613973 0.254941 0.469973 0.282931 0.268916 0.174812 0.152623 0.114693 0.142106 0.155874 0.17692 0.21881 0.180617 0.123448 0.121691 0.139315 0.107329 0.100559 0.101814 0.0947321 0.0944267 0.115607 0.0751078 0.0624816
threshold=-1.0177843425823001 -1.0280191327640325 1.5957311747945517 -0.059833824361476669 -0.67041970183239086 -0.2473852565924157 -1.9021240344599859 -0.075488564262534946 -0.46518872815305973 -0.85165139824601399 1.6177017177109201 -0.56648168894964945 1.8234971376129125 -0.30587973164428206 -0.54495550769348744 0.40351813171035833 -0.71110349125959293 -0.60562556113626564 -0.042523132269615939 -0.067559172949936991 -1.2548267530178638 1.4730005526531234 0.43945132480707833 0.80871524400186756 -0.5856442358489361 -0.068603675872866435 -1.0260643002205214 0.3246417414133112 -1.6584592860899867 -1.1134836084176876
decision_type=2 2 2 2 2 2 2 2 2 2 2 2 2 2 2 2 2 2 2 2 2 2 2 2 2 2 2 2 2 2
left_child=-1 -2 5 11 -5 12 -7 13 -9 -10 25 -4 23 14 -8 -16 -17 19 -19 -18 21 -15 -13 28 -25 -11 27 -22 -3 -26
right_child=1 2 3 4 -6 6 7 8 9 10 -12 22 -14 20 15 16 17 18 -20 -21 26 -23 -24 24 29 -27 -28 -29 -30 -31
leaf_value=0.15738474775443156 0.14712373598123654 0.13398381052073544 0.14258759886363825 0.13830918378957427 0.15982053626258697 0.1497770955963785 0.13057480555608392 0.14858648984815512 0.1436552149164308 0.13630078672012153 0.14375795285089246 0.12908936193550311 0.1376998691141556 0.13235204530248074 0.1320160889127564 0.1280105695814111 0.14933447061266611 0.13174362675977602 0.14071596188773555 0.13902598842312958 0.13023506058806147 0.14245433408638766 0.13737012665047305 0.13919968454999454 0.12992475039389592 0.13020305419463968 0.130550403473501 0.14072801357650014 0.12940463435242489 0.13465808777431684
leaf_weight=20 39 38 20 22 20 22 112 26 28 32 20 45 28 43 117 20 21 57 37 26 21 20 24 20 83 125 515 21 624 42
leaf_count=20 39 38 20 22 20 22 112 26 28 32 20 45 28 43 117 20 21 57 37 26 21 20 24 20 83 125 515 21 624 42
internal_value=0.132979 0.132763 0.132512 0.138907 0.148553 0.132113 0.133218 0.132924 0.135921 0.134315 0.132837 0.134356 0.130442 0.132239 0.133582 0.134794 0.136812 0.138061 0.135275 0.143632 0.131393 0.135559 0.13197 0.13019 0.132575 0.131446 0.130922 0.135482 0.129667 0.131515
internal_weight=0 2268 2229 131 42 2098 1263 1241 231 205 177 89 835 1010 390 278 161 141 94 47 620 63 69 807 145 157 557 42 662 125
internal_count=2288 2268 2229 131 42 2098 1263 1241 231 205 177 89 835 1010 390 278 161 141 94 47 620 63 69 807 145 157 557 42 662 125
is_linear=0
shrinkage=1


Tree=1
num_leaves=31
num_cat=0
split_feature=196 236 252 2 360 263 208 13 154 343 324 249 2 350 11 228 137 264 204 241 60 41 225 200 161 54 20 5 124 1
split_gain=0.973478 0.679374 0.861775 0.444851 0.499782 0.325196 0.301903 0.22507 0.362262 0.224724 0.161369 0.262411 0.19625 0.296956 0.159172 0.181961 0.261183 0.206076 0.161193 0.312882 0.185597 0.151063 0.148703 0.140581 0.131688 0.128831 0.111704 0.102688 0.088093 0.083238
threshold=-1.0177843425823001 -1.0596049781235093 0.13171629314457786 1.5957311747945517 1.0150478418280626 -0.47108337637893721 -1.9516681929655608 1.0000000180025095e-35 -0.099694196973659763 -0.44411487369827118 -0.3167814055928474 1.2015130177205793 -0.90139454679279452 0.0074411389942890668 0.32242459241425958 -0.56393371511969026 0.55778619357282844 0.63644485448544608 -0.66501862913166998 -0.31286313391445336 0.045051202426694574 -0.77640895427727397 -0.073219076085963938 -0.27025482481598934 -0.56883107689516776 -0.28929513326303014 0.90682440873290615 1.485080985314049 1.1994610366340683 -0.50461035890076145
decision_type=2 2 2 2 2 2 2 2 2 2 2 2 2 2 2 2 2 2 2 2 2 2 2 2 2 2 2 2 2 2
left_child=-1 2 -2 5 9 21 -7 10 -9 23 14 -12 -13 26 15 -8 18 22 19 -17 -21 24 -18 -5 -3 -24 -14 -16 -28 -20
right_child=1 3 -4 4 -6 6 7 8 -10 -11 11 12 13 -15 27 16 17 -19 29 20 -22 -23 25 -25 -26 -27 28 -29 -30 -31
leaf_value=0.021965522635728124 -0.00030345694893704994 0.008455322485505826 0.026144460537894206 0.0026349153815080294 0.019335572758600827 0.012014054187706539 -0.0014179120358312504 -0.0019504190134328036 0.016854809680953622 -0.001190168218630733 -0.0025050956286741021 -0.0031737016937272117 0.0082216377036688337 0.014542110954326663 -0.0030263743025854984 -0.0030935585994513767 -5.7129600817071545e-05 0.015206434950232507 0.0023099298106639514 0.015278872957936042 0.0027441501528734252 -0.0029769722995571287 0.014306931206513019 0.01395151855512744 -0.00083037073324833594 0.0032300845143340886 0.0045888125400749911 0.0041106062480442537 -0.0019951170989138596 -0.0028762676248637337
leaf_weight=20 28 21 22 23 21 21 120 21 20 66 511 55 22 22 126 31 35 25 49 27 21 664 21 21 56 21 31 24 59 84
leaf_count=20 28 21 22 23 21 21 120 21 20 66 511 55 22 22 126 31 35 25 49 27 21 664 21 21 56 21 31 24 59 84
internal_value=0 -0.0001937 0.0113336 -0.000453558 0.00519909 -0.000808372 0.000117813 -7.07315e-05 0.00722286 0.00250031 -0.000303627 -0.00132759 0.00185603 0.00392048 0.000923728 0.0018943 0.00316011 0.00731803 0.00115961 0.00473742 0.00979493 -0.00249075 0.00475685 0.00803602 0.00170209 0.00876851 0.00183408 -0.00188446 0.000272681 -0.000965563
internal_weight=0 2268 50 2218 131 2087 1346 1325 41 110 1284 700 189 134 584 434 314 102 212 79 48 741 77 44 77 42 112 150 90 133
internal_count=2288 2268 50 2218 131 2087 1346 1325 41 110 1284 700 189 134 584 434 314 102 212 79 48 741 77 44 77 42 112 150 90 133
is_linear=0
shrinkage=0.1


Tree=2
num_leaves=31
num_cat=0
split_feature=196 122 339 148 2 298 183 14 323 1 1 34 0 226 0 285 237 0 5 122 251 281 209 25 239 161 264 361 163 244
split_gain=0.788517 0.564888 0.427128 0.281029 0.264805 0.287225 0.249123 0.202899 0.300566 0.373894 0.568091 0.411332 0.155659 0.289834 0.183178 0.168047 0.153944 0.145366 0.128109 0.160362 0.142157 0.168326 0.117275 0.130153 0.152843 0.103431 0.113567 0.10198 0.0968099 0.0966123
threshold=-1.0177843425823001 -1.0280191327640325 3.7071414488960848 -0.94055363048581053 1.5957311747945517 0.2549298514674061 1.6605495829543322 -0.099475623780204456 -1.9360549806746132 -0.50746980196125646 -0.51185518762835513 0.5664482459733805 0.15420175818959295 -0.074930518146535105 1.2003962230567466 0.014070996884063101 -0.99063384167467372 1.2235890306768644 -0.023232280786144487 -0.83851459266636641 0.63019875205392162 -0.32693705815136759 -0.75045399359676501 0.38569465166022521 -0.63912212748124564 -0.52141027773436666 -0.26317985476239369 -0.30593817924988048 2.2717133738630499 0.71653532824509136
decision_type=2 2 2 2 2 2 2 2 2 2 2 2 2 2 2 2 2 2 2 2 2 2 2 2 2 2 2 2 2 2
left_child=-1 -2 3 -3 7 -6 -7 16 -9 10 12 -12 13 15 -14 -10 -5 -16 19 -11 29 27 23 25 -25 26 -18 -22 -24 -21
right_child=1 2 -4 4 5 6 -8 8 9 18 11 -13 14 -15 17 -17 22 -19 -20 20 21 -23 28 24 -26 -27 -28 -29 -30 -31
leaf_value=0.019768971167504788 0.011756822771321123 -0.003054137682577349 0.011468494882186256 0.0064857086457777774 -0.0008911549465312643 0.017045320339500906 0.0038953861112103745 0.012874548425897955 -0.0022284240706759539 -0.0033279881820094609 0.0043313564830254224 0.020698519636477744 -0.00389419903461304 0.012857645539635863 0.0082805795546878006 0.0064694656227301389 -0.0023812889647872554 -0.0022406165153370239 -0.0027753504770370811 -0.0019081219758644895 -0.0015942607579442364 0.013390054143965244 -0.0025327158498106295 -0.00095388701833460645 0.010237153798628313 -0.0029294126037170149 0.0072652939420480003 0.0076972543981572109 0.0034776025135735316 0.0057438654093337916
leaf_weight=20 39 371 30 24 49 25 34 20 58 78 34 28 90 27 29 36 23 24 261 77 27 20 625 23 26 94 26 21 28 21
leaf_count=20 39 371 30 24 49 25 34 20 58 78 34 28 90 27 29 36 23 24 261 77 27 20 625 23 26 94 26 21 28 21
internal_value=0 -0.00017433 -0.000383085 -0.00054477 -3.54843e-05 0.00476768 0.00946739 -0.000337078 0.000760462 0.000468907 0.00310895 0.011723 0.00108596 0.00372569 -0.00114766 0.00110268 -0.00141188 0.00351626 -0.00123536 0.000411931 0.00216924 0.00568233 -0.00163619 0.000536405 0.00498422 -0.00098767 0.00273731 0.00247078 -0.002275 -0.00026841
internal_weight=0 2268 2229 2199 1828 108 59 1720 851 831 326 62 264 121 143 94 869 53 505 244 166 68 845 192 49 143 49 48 653 98
internal_count=2288 2268 2229 2199 1828 108 59 1720 851 831 326 62 264 121 143 94 869 53 505 244 166 68 845 192 49 143 49 48 653 98
is_linear=0
shrinkage=0.1


Tree=3
num_leaves=31
num_cat=0
split_feature=196 291 339 45 94 33 335 149 130 2 277 21 161 291 61 243 56 309 113 251 305 15 113 56 116 160 272 347 11 317
split_gain=0.638699 0.509524 0.408042 0.253244 0.264822 0.197419 0.202084 0.691456 0.213088 0.150423 0.146425 0.162436 0.129419 0.139096 0.220748 0.15265 0.114713 0.102601 0.14121 0.131913 0.186299 0.106031 0.0993011 0.073736 0.104345 0.0716207 0.0700652 0.0663842 0.0652374 0.0649185
threshold=-1.0177843425823001 -0.99547622392455692 4.2408269033696895 -0.32368615832873321 2.6595660131078933 -0.86938552211979159 -1.016392794141211 -0.43136256692065561 -0.093525363904870443 -0.90231599539854634 -0.96504897174203119 0.86088792469423236 2.1751038755118666 -0.64232093019733816 -0.6383226623383581 0.033718395630361379 1.4981414460018365 -0.32689039902150868 0.34295711350797409 0.51254143076987435 0.38277490816758514 -0.076540421295180031 -0.20182631648413538 0.54713025703462492 0.19884858590929963 -0.30631670154398744 -0.7005515055294248 -0.52148416460077129 0.050965105859842187 -1.3021311564788529
decision_type=2 2 2 2 2 2 2 2 2 2 2 2 2 2 2 2 2 2 2 2 2 2 2 2 2 2 2 2 2 2
left_child=-1 -2 3 -3 5 25 7 8 -7 -8 11 -11 13 29 -15 17 -13 23 19 21 28 22 -19 -16 27 -5 -23 -25 -21 -12
right_child=1 2 -4 4 -6 6 9 -9 -10 10 12 16 -14 14 15 -17 -18 18 -20 20 -22 26 -24 24 -26 -27 -28 -29 -30 -31
leaf_value=0.017792072929441929 0.015347419914212965 -0.0034069344743301033 0.0126674555746528 0.0026569807565667565 0.011111994992409434 0.0077260588395542326 -0.0026903910530058461 0.018662197945209649 -0.0044732459396537808 -0.0015040388530386346 0.0025826733135285657 0.012254863323843374 0.0075582988236261445 0.0088657209319212751 -0.0021862870355206948 0.0069605859811417764 0.0026054400844838133 0.00062238009025653203 -0.0025606926993237107 0.0061364854201674465 -2.4499892092802946e-06 0.0045187723213950034 0.0092809545171733659 0.00076674756706846545 0.0070135908145901003 -0.0026987099564470866 -0.0011246151967345367 -0.0028969294976928391 0.013516125637713983 -0.0024959446396912452
leaf_weight=20 21 255 24 27 21 21 180 26 45 28 28 28 23 31 238 33 22 27 77 25 34 26 26 163 21 332 143 71 23 249
leaf_count=20 21 255 24 27 21 21 180 26 45 28 28 28 23 31 238 33 22 27 77 25 34 26 26 163 21 332 143 71 23 249
internal_value=0 -0.000156897 -0.000301797 -0.000441816 -5.76158e-05 -0.000178089 0.000300689 0.00484966 -0.000591649 2.09392e-05 0.00039179 0.00459414 0.000127022 -1.36528e-05 0.00056779 0.000284178 0.00800912 3.20944e-05 0.00126458 0.00223348 0.00566097 0.000967465 0.00486998 -0.000920392 0.000261111 -0.00229591 -0.000256402 -0.000344881 0.00967256 -0.00198258
internal_weight=0 2268 2247 2223 1968 1947 1588 92 66 1496 1316 78 1238 1215 938 907 50 874 381 304 82 222 53 493 255 359 169 234 48 277
internal_count=2288 2268 2247 2223 1968 1947 1588 92 66 1496 1316 78 1238 1215 938 907 50 874 381 304 82 222 53 493 255 359 169 234 48 277
is_linear=0
shrinkage=0.1


Tree=4
num_leaves=31
num_cat=0
split_feature=2 339 258 122 34 208 1 233 1 1 22 0 2 252 308 180 344 256 35 304 42 140 13 43 180 272 307 236 9 0
split_gain=0.540864 0.704123 1.04031 0.522466 0.204965 0.348296 0.172294 0.132191 0.2899 0.525365 0.347367 0.181309 0.226072 0.198641 0.163762 0.156887 0.247698 0.117607 0.165177 0.0953826 0.145397 0.0918017 0.080555 0.0614302 0.0542613 0.0812546 0.0540547 0.109366 0.0498694 0.0493592
threshold=1.6001080556718728 0.67531595581084713 -0.48429144379838224 -1.0280191327640325 -0.88513083180959196 -1.9516681929655608 1.4413124707666405 1.4168677555474944 -0.50746980196125646 -0.51185518762835513 0.7605079816886321 0.15420175818959295 -0.48228900594335611 0.89215822936488332 0.016390751427344166 -0.84111247853206794 -0.23329420006076795 -0.0038858664217924985 0.78829546690814511 -0.21341357085163729 -0.26051541314883769 -1.6680859089541065 -0.065228105422892868 -0.99656114255351125 -0.70978396882282746 -0.69177422943648914 -0.49045561807131405 -0.80995286575018388 -0.70840836975446408 1.2135156397681184
decision_type=2 2 2 2 2 2 2 2 2 2 2 2 2 2 2 2 2 2 2 2 2 2 2 2 2 2 2 2 2 2
left_child=3 6 -3 -1 -5 -6 -2 14 9 11 -11 12 23 -14 15 16 28 18 -8 21 -21 -17 -22 -9 -23 -26 27 -27 -7 -24
right_child=1 2 -4 4 5 7 17 8 -10 10 -12 -13 13 -15 -16 19 -18 -19 -20 20 22 24 29 -25 25 26 -28 -29 -30 -31
leaf_value=0.012931331125055923 0.0086225895599151663 0.00075251121412624015 0.031169184637458432 -0.0029403515557805226 0.010698917154865019 -0.0032027930389934532 0.0081292296921753378 0.0038537939010157493 -0.0023092555158866056 0.0040860727635057019 0.019434389677541009 -0.0037377539315881832 0.015930084986612202 0.0027812702150118575 -0.0022756388804664237 0.0057969560287892824 0.01180825099415545 -0.0055868536431455257 -0.0042967385100200779 0.0092689435463398692 0.006110055922042756 -0.0031670980198707961 -0.0023419618449312817 -0.0026517970834863671 0.0042020196851808578 -0.0025046849914360791 -0.0013098818911204985 0.0066674137344727149 0.003009243990111697 0.0027166405559650494
leaf_weight=29 24 22 23 314 29 24 23 21 138 30 29 60 20 27 487 20 28 33 20 23 21 105 62 47 32 26 489 26 28 28
leaf_count=29 24 22 23 314 29 24 23 21 138 30 29 60 20 27 487 20 28 33 20 23 21 105 62 47 32 26 489 26 28 28
internal_value=0 0.00591076 0.0162988 -0.000399935 -0.000582814 -0.000171555 0.00123613 -0.000349558 0.00132588 0.00346968 0.0116302 0.000718434 0.0030434 0.00837651 -0.000795064 -4.45048e-06 0.00422529 -0.00109643 0.00234971 -0.000411156 0.00203255 -0.000880291 0.000533112 -0.000642718 -0.00107726 -0.000694305 -0.000983921 0.00208136 0.00014215 -0.000768174
internal_weight=0 145 45 2143 2114 1800 100 1771 372 234 59 175 115 47 1399 912 80 76 43 832 134 698 111 68 678 573 541 52 52 90
internal_count=2288 145 45 2143 2114 1800 100 1771 372 234 59 175 115 47 1399 912 80 76 43 832 134 698 111 68 678 573 541 52 52 90
is_linear=0
shrinkage=0.1


Tree=5
num_leaves=31
num_cat=0
split_feature=196 291 339 307 73 21 184 53 0 208 208 2 42 239 331 97 362 112 240 36 244 63 21 3 0 110 33 11 209 119
split_gain=0.447441 0.381099 0.286728 0.185021 0.669311 0.146749 0.368451 0.146843 0.577779 0.0836415 0.124603 0.0805473 0.0947024 0.0912956 0.112959 0.137062 0.0722177 0.0871065 0.0683286 0.14662 0.0631544 0.0704914 0.0682822 0.0668232 0.115389 0.0856551 0.0604389 0.0594353 0.0792979 0.114042
threshold=-1.0177843425823001 -0.99547622392455692 4.2408269033696895 -1.135931637959853 -1.2053963167917559 0.7423693397704344 -0.89456805677586948 -0.074230355696975253 0.12451168245302015 0.23239624219006563 0.23591655036169734 -0.90231599539854634 2.0658018290341498 0.30471070517459503 -0.50288495187310789 -0.49878683258400175 -0.42597674210964226 -0.23974854515845326 -1.1910701426977497 -0.27110943468374926 -0.85720414081723229 -1.2516982754319885 1.1655887381499197 1.450184117309 0.13168082818499685 -0.074207260208711143 0.38160999531503498 -0.2903922009811663 -0.72132699581990256 -0.72384957213080425
decision_type=2 2 2 2 2 2 2 2 2 2 2 2 2 2 2 2 2 2 2 2 2 2 2 2 2 2 2 2 2 2
left_child=-1 -2 3 -3 -5 9 -7 20 -9 18 -11 -12 13 14 -13 -16 17 -17 19 -6 22 -22 -8 -23 25 -25 -15 -20 29 -29
right_child=1 2 -4 4 5 6 7 8 -10 10 11 12 -14 26 15 16 -18 -19 27 -21 21 23 -24 24 -26 -27 -28 28 -30 -31
leaf_value=0.014891777634620669 0.013277459020415942 -0.0032060366953443513 0.010615062445867808 0.016881052021990004 -0.0013766935163670602 0.014526960621587932 0.0075673200943995088 -0.002981470761005767 0.01537712282811602 0.0079161056689918043 -0.0031010529571712819 -0.0025892927476929297 0.0064832279963108405 -0.00025749998722775756 0.010618099694450697 0.0013589232838345008 -0.0034656069928868899 0.0083827218526731362 -0.0027926888952065927 0.0083903319043615327 0.005185876344330609 -0.0018742863119237817 0.00018207329201451954 0.0011104910088201555 -0.0020120809207119414 0.0098151935636997239 -0.003649622124984213 -0.00069070786165589793 -0.0019409736187304405 0.0050540200032463132
leaf_weight=20 21 209 24 23 51 20 21 40 30 20 78 45 24 220 21 76 21 23 286 22 20 226 31 26 51 20 69 161 345 44
leaf_count=20 21 209 24 23 51 20 21 40 30 20 78 45 24 220 21 76 21 23 286 22 20 226 31 26 51 20 69 161 345 44
internal_value=0 -0.000131321 -0.000256636 -0.00037401 -8.01202e-05 -0.000276055 0.00123679 0.000665166 0.0048865 -0.000763259 0.000156329 -0.000112641 0.000354486 4.48232e-05 0.00177293 0.00316513 0.00186086 0.00299071 -0.00136721 0.00156679 -8.29182e-05 -0.00057525 0.00316458 -0.000931976 0.00126351 0.00489514 -0.00106738 -0.00162341 -0.00101539 0.000542307
internal_weight=0 2268 2247 2223 2014 1991 485 465 70 1506 597 577 499 475 186 141 120 99 909 73 395 343 52 323 97 46 289 836 550 205
internal_count=2288 2268 2247 2223 2014 1991 485 465 70 1506 597 577 499 475 186 141 120 99 909 73 395 343 52 323 97 46 289 836 550 205
is_linear=0
shrinkage=0.1


Tree=6
num_leaves=31
num_cat=0
split_feature=2 339 258 122 34 208 1 20 324 13 335 137 177 266 26 127 310 85 94 244 1 1 250 5 349 10 349 1 53 0
split_gain=0.363986 0.521388 0.800188 0.387107 0.148825 0.25134 0.128339 0.107713 0.102917 0.144161 0.108016 0.0911784 0.129855 0.107659 0.0906126 0.0881123 0.148494 0.132481 0.0818687 0.0799889 0.0985227 0.136506 0.104153 0.0865786 0.0903578 0.0864498 0.079977 0.0594948 0.0588334 0.058685
threshold=1.6001080556718728 0.67531595581084713 -0.48429144379838224 -1.0280191327640325 -0.88513083180959196 -1.9516681929655608 1.4413124707666405 4.2651830265399111 -0.3167814055928474 1.0000000180025095e-35 -1.0575668080855105 0.55778619357282844 -0.71729445518631552 -0.19054426462818433 -0.22818632481564158 0.026978676002732693 -0.35168974573688899 -0.6863983806118662 -0.42093075075061431 0.12079267766550214 -0.50831944422968323 -0.51137031302307057 0.21394320926051577 -0.061861584887511221 0.38595018957393401 0.66669202765872526 -0.28958890172951307 -0.50189418868415492 -0.087212527531412079 0.13634836507623374
decision_type=2 2 2 2 2 2 2 2 2 2 2 2 2 2 2 2 2 2 2 2 2 2 2 2 2 2 2 2 2 2
left_child=3 6 -3 -1 -5 -6 -2 8 10 19 -7 15 -13 29 -8 -12 -17 -18 -15 -10 21 22 25 24 -22 -21 -24 28 -19 -14
right_child=1 2 -4 4 5 7 14 -9 9 -11 11 12 13 18 -16 16 17 27 -20 20 23 -23 26 -25 -26 -27 -28 -29 -30 -31
leaf_value=0.011147051176120496 0.007201310650755962 0.00015330554240129213 0.026829696802989297 -0.002494396504126326 0.0090992580970813489 0.0077463842649012809 0.0025503521944795337 0.0068329633812287032 -0.0021205712744870606 0.0062953238769506044 -0.0011849749140546073 -0.0030456720410208956 0.0055861902909110431 0.0042025508533697579 -0.0043771239072290281 -0.002438970598712808 0.0099480917435497626 0.0075323864696547399 0.011918823177693412 -0.0036669342470030107 -0.00062850864425719789 0.0091226260998241975 0.0081596855103416611 -0.0028229994154247541 0.0068771004024893046 0.0025316255824041687 0.00066126938062635338 -0.0010186065809102728 0.00035260768296817941 -0.00027954763535297281
leaf_weight=29 24 22 23 314 29 20 35 21 502 26 386 38 23 44 41 61 26 25 20 63 81 21 25 174 20 35 33 40 21 66
leaf_count=29 24 22 23 314 29 20 35 21 502 26 386 38 23 44 41 61 26 25 20 63 81 21 25 174 20 35 33 40 21 66
internal_value=0 0.00484888 0.0137879 -0.000328086 -0.000485502 -0.000135062 0.000826317 -0.000286273 -0.000371704 -0.00105147 0.000493449 0.000300038 0.00218631 0.00348576 -0.00118684 -0.000344467 0.00153089 0.00369304 0.00661389 -0.00125169 -0.000286703 0.00155355 0.000534641 -0.00147116 0.000857751 -0.00145316 0.00389335 0.00180198 0.00425466 0.00123632
internal_weight=0 145 45 2143 2114 1800 100 1771 1750 980 770 750 191 153 76 559 173 112 64 954 452 177 156 275 101 98 58 86 46 89
internal_count=2288 145 45 2143 2114 1800 100 1771 1750 980 770 750 191 153 76 559 173 112 64 954 452 177 156 275 101 98 58 86 46 89
is_linear=0
shrinkage=0.1


Tree=7
num_leaves=31
num_cat=0
split_feature=196 291 339 240 208 334 113 264 2 2 0 0 196 214 136 211 313 289 285 9 2 243 56 278 288 349 24 102 1 27
split_gain=0.311308 0.283864 0.20277 0.143728 0.454548 0.195373 0.1485 0.129585 0.129766 0.104835 0.101861 0.180978 0.149897 0.0921621 0.198939 0.105001 0.0907348 0.0915331 0.0898348 0.0868035 0.0647522 0.151843 0.0622873 0.0582453 0.0535561 0.0534987 0.0531819 0.051939 0.0559743 0.0513854
threshold=-1.0177843425823001 -0.99547622392455692 4.2408269033696895 -1.2161694360672419 -1.6104302205731837 0.39452751115139689 -0.57619799295676544 -0.31888586641556615 1.6070957075988239 -0.90231599539854634 1.2235890306768644 1.2107090542217149 -0.15596748615004366 -0.49156653676160722 1.4716102435533907 1.2550004153731604 -0.15027713447135119 0.2350334185426077 0.19839183758844881 -0.62811626399694898 1.6001080556718728 -0.10338213415997489 -1.5458735173223284 -0.74965877236504552 -0.25356004253842784 -0.18292483468160012 -0.29330221698933651 -0.33052903249850557 0.46224387626504138 -0.27566564771624008
decision_type=2 2 2 2 2 2 2 2 2 2 2 2 2 2 2 2 2 2 2 2 2 2 2 2 2 2 2 2 2 2
left_child=-1 -2 3 4 -3 26 -7 20 9 -9 11 13 29 -11 15 16 25 18 23 -20 -5 -22 -19 -18 -21 27 -6 28 -15 -13
right_child=1 2 -4 7 5 6 -8 8 -10 10 -12 12 -14 14 -16 -17 17 22 19 24 21 -23 -24 -25 -26 -27 -28 -29 -30 -31
leaf_value=0.012421489227563143 0.011462922855502084 0.014025757235607931 0.0089247876467804122 -0.0017640183820163324 0.0015715465852708527 -8.7877462521709245e-05 0.0098675144956477234 -0.0023895865720407494 0.0073875173072641097 -0.0014195090918011947 -0.0026053905451240448 -0.00072005829215049746 0.012226240337401143 0.0045420623988517237 0.010515225623246461 0.0077102374890819199 0.0035996544039657999 0.0034911736367373835 -7.649076481660207e-06 0.0098870294272071779 -0.0023012087715324017 0.0076334734186530116 -0.0012212088074687296 -0.0024368106022434818 0.0037094946019351482 -0.0034751697443835571 -0.0031011613947089004 -0.0016114476505355278 -0.001921887647005774 0.0060804483364336193
leaf_weight=20 21 28 24 788 33 29 31 163 24 227 104 25 23 37 21 20 31 36 21 36 40 25 127 33 23 71 93 93 21 20
leaf_count=20 21 28 24 788 33 29 31 163 24 227 104 25 23 37 21 20 31 36 21 36 40 25 127 33 23 71 93 93 21 20
internal_value=0 -0.000109537 -0.000217691 -0.000316395 0.00214728 0.000359127 0.00505574 -0.000578828 0.000111067 -4.32042e-05 0.000351492 0.000707001 0.00565899 0.000284498 0.000963111 0.00059773 0.000328826 0.00144252 0.00327962 0.00551364 -0.00151378 0.00151982 -0.000180437 0.000487102 0.00747884 -0.00121128 -0.00187736 -0.000146808 0.00220167 0.00230239
internal_weight=0 2268 2247 2223 214 186 60 2009 1156 1132 969 865 68 797 570 549 529 307 144 80 853 65 163 64 59 222 126 151 58 45
internal_count=2288 2268 2247 2223 214 186 60 2009 1156 1132 969 865 68 797 570 549 529 307 144 80 853 65 163 64 59 222 126 151 58 45
is_linear=0
shrinkage=0.1


Tree=8
num_leaves=31
num_cat=0
split_feature=196 5 34 45 34 323 128 225 94 361 19 245 363 251 229 143 137 177 291 0 159 272 242 20 297 25 351 344 4 33
split_gain=0.252159 0.251108 0.558649 0.595922 0.120597 0.107439 0.0908944 0.233899 0.0889474 0.136565 0.0870816 0.0819192 0.139836 0.0690796 0.151244 0.195496 0.090541 0.0977851 0.0734083 0.0891454 0.0977502 0.0659727 0.0701958 0.0638572 0.0568542 0.0891233 0.0795089 0.0745862 0.104222 0.0547502
threshold=-1.0177843425823001 -1.3349985640930975 -0.53626087639064302 0.056617723493947343 -0.98003038393127906 -1.9360549806746132 1.0000000180025095e-35 -0.43977720466239817 -0.32932841822295217 2.878335650831743 0.93760600166609487 0.59468604684511739 -0.41653162350053841 -1.0325162873422615 -0.32112392395943962 -0.63298996664462304 0.55778619357282844 -0.71729445518631552 0.15879681852863164 0.1545676270293817 -0.33212812278111897 -0.67875711854978793 0.10866882002234847 0.80706848755721472 -0.079639779920217993 -1.1645655424678447 -0.90183370889153536 -0.29694400217792888 -0.72640968143528728 -0.41477065528307983
decision_type=2 2 2 2 2 2 2 2 2 2 2 2 2 2 2 2 2 2 2 2 2 2 2 2 2 2 2 2 2 2
left_child=-1 2 29 -4 -3 -6 8 -8 9 13 -10 23 -13 14 -7 -16 21 -18 19 20 -19 22 -15 -12 25 -23 -27 -28 -29 -2
right_child=1 4 3 -5 5 6 7 -9 10 -11 11 12 -14 16 15 -17 17 18 -20 -21 -22 24 -24 -25 -26 26 27 28 -30 -31
leaf_value=0.011179340165108444 8.4445408678480565e-05 -0.0024668278453623127 0.0015897374320775271 0.021874461477688914 0.0065687612552816676 -0.0012471775788283192 0.012511453410843388 -0.00032146667743253771 -0.0014871242662995875 0.008635268546640873 0.0036855020049598912 0.00051144801871851086 0.0099330004831047168 -0.00022899251355714092 0.014370834866713268 0.0008524658128052303 -0.0023279547528905231 0.0038570011419131224 0.006453280992702478 0.0068536031127829737 -0.003495470228954219 0.0061580286253177172 0.0069039599832401363 -0.0012784380420984972 -0.002278634185453533 0.004919848744959935 -0.0025845009930569617 -0.0014814438223677317 0.00692891828391863 -0.0061168030758077903
leaf_weight=20 35 238 30 28 24 43 20 49 739 20 31 50 23 37 20 23 43 33 45 24 40 21 22 158 222 23 139 41 23 24
leaf_count=20 35 238 30 28 24 43 20 49 739 20 31 50 23 37 20 23 43 33 45 24 40 21 22 158 222 23 139 41 23 24
internal_value=0 -9.85832e-05 0.00441307 0.0113824 -0.000343987 -7.98804e-05 -0.000164352 0.00339822 -0.000299417 0.000473452 -0.000931764 0.00063469 0.00347988 0.000269152 0.00294645 0.00714008 -5.37766e-05 0.00184997 0.00311512 0.00156648 -0.00017175 -0.000720809 0.00243075 -0.000464247 -0.00111727 -7.34599e-05 -0.000652492 -0.00128384 0.00154103 -0.0024381
internal_weight=0 2268 117 58 2151 1913 1889 69 1820 819 1001 262 73 799 86 43 713 185 142 97 73 528 59 189 469 247 226 203 64 59
internal_count=2288 2268 117 58 2151 1913 1889 69 1820 819 1001 262 73 799 86 43 713 185 142 97 73 528 59 189 469 247 226 203 64 59
is_linear=0
shrinkage=0.1


Tree=9
num_leaves=31
num_cat=0
split_feature=224 291 240 339 232 2 312 361 205 264 251 28 353 243 2 0 0 1 1 95 1 0 190 87 134 0 0 74 83 82
split_gain=0.219541 0.196056 0.129295 0.383107 0.191099 0.121798 0.287596 0.250406 0.188922 0.105588 0.0981886 0.1273 0.082539 0.107664 0.0872528 0.0623536 0.0890516 0.205651 0.223366 0.0999147 0.0701474 0.167401 0.114949 0.105448 0.0696077 0.0801565 0.070414 0.0624037 0.0596813 0.0513555
threshold=4.374332235700364 -0.99547622392455692 -1.2161694360672419 0.09059669798615623 -0.27626461698926136 1.6001080556718728 -0.82415340242541113 0.19803134815125611 -0.91347704174367916 -0.3086251675643063 0.28183245496905635 0.10656730571825336 0.18013521647688205 -0.0038476422357617383 -0.90231599539854634 0.10836120495503719 0.13857299211195723 -0.50665001702506152 -0.51692712253348982 -0.042999893638096601 -1.1222302821319705 1.2235890306768644 -0.52401497203502856 -0.47033363959586566 -0.81031688800176604 0.15912705458079371 0.15484215766798168 -0.22453888173663214 -0.31665217438246546 0.055122208971079847
decision_type=2 2 2 2 2 2 2 2 2 2 2 2 2 2 2 2 2 2 2 2 2 2 2 2 2 2 2 2 2 2
left_child=1 -1 3 4 10 9 8 -8 -7 -4 11 -3 13 14 -11 29 17 18 -17 -19 21 22 23 -18 -22 26 27 -26 -29 -16
right_child=-2 2 5 -5 -6 6 7 -9 -10 12 -12 -13 -14 -15 15 16 20 19 -20 -21 24 -23 -24 -25 25 -27 -28 28 -30 -31
leaf_value=0.0095082699897743404 0.0088004525451521789 0.008132798872732867 -0.0015188579811599313 0.012045666812495753 0.0095571145613212154 0.0047042345204813922 0.0029125230339093087 0.016675151987001299 -0.0072591642905591117 -0.0026402310181647013 -0.0024486126678051993 -0.00196685018891003 -0.0014448739634629467 0.0057033532628817116 0.00085442875652521298 0.00060612932657418041 0.0077975003736182342 -0.0028440273873022071 0.013612644007850078 0.005349649378860539 0.0053958559781312945 -0.0019779447257062609 0.011079713258892298 -0.0019055868673603983 -0.0027015481867790955 -0.0021194965574266819 0.004981031593800124 -0.0004139124592201728 0.0065089400019496674 -0.003339683548726428
leaf_weight=21 28 24 793 33 20 22 39 20 33 92 112 26 295 38 53 23 21 46 31 22 20 49 25 24 51 174 35 33 20 65
leaf_count=21 28 24 793 33 20 22 39 20 33 92 112 26 295 38 53 23 21 46 31 22 20 49 25 24 51 174 35 33 20 65
internal_value=0 -0.000109032 -0.000199235 0.00213234 0.000334872 -0.000446907 0.00272835 0.00757782 -0.0024738 -0.000636425 -0.000803676 0.00288098 -9.95333e-06 0.000505012 0.000253052 0.000637708 0.0010681 0.00346557 0.00807283 -0.000193132 0.000420992 0.00250493 0.00564295 0.00262252 -0.000323719 -0.000689187 0.00110127 -0.000204416 0.00219848 -0.00145589
internal_weight=0 2260 2239 215 182 2024 114 59 55 1910 162 50 1117 822 784 692 574 122 54 68 452 119 70 45 333 313 139 104 53 118
internal_count=2288 2260 2239 215 182 2024 114 59 55 1910 162 50 1117 822 784 692 574 122 54 68 452 119 70 45 333 313 139 104 53 118
is_linear=0
shrinkage=0.1


Tree=10
num_leaves=31
num_cat=0
split_feature=339 291 2 219 143 270 2 353 243 241 208 206 120 306 19 13 229 273 11 111 10 222 353 179 69 307 241 350 35 265
split_gain=0.185916 0.158679 0.121892 0.10931 0.124889 0.0960948 0.215305 0.0934213 0.113458 0.161352 0.109035 0.0631892 0.067 0.0654105 0.058616 0.075772 0.0676825 0.053861 0.0565635 0.0537783 0.0792203 0.0479692 0.0409666 0.0405793 0.05793 0.065998 0.08237 0.074154 0.0346144 0.0468276
threshold=4.2408269033696895 -0.99547622392455692 3.327900978840288 0.33584326988395258 -0.0041265700053070868 0.63132234454407554 -0.46954230023045646 0.14484997266597724 -0.0038476422357617383 0.61830338473843705 -1.9516681929655608 -0.46877609355732325 -1.2230809626547134 -0.88536587803829503 0.95630863385732756 -0.062055826087712811 -0.72882118755037562 -1.3887080445116256 0.96977172101403697 -0.46894633136235941 -0.22507336201173497 -0.30515104793795761 -0.98238142209907087 -1.608187032891945 -0.88187434648583085 -0.15270754497872413 0.21700448373806977 -0.12224871614763193 -1.0175893674331913 0.66850572463642499
decision_type=2 2 2 2 2 2 2 2 2 2 2 2 2 2 2 2 2 2 2 2 2 2 2 2 2 2 2 2 2 2
left_child=1 -1 3 7 -5 -6 -7 8 10 -10 -3 14 -13 -14 16 -16 -12 -9 28 20 -15 -22 -21 -24 -25 -26 -27 -28 -19 -30
right_child=-2 2 -4 4 5 6 -8 17 9 -11 11 12 13 19 15 -17 -18 18 -20 22 21 -23 23 24 25 26 27 -29 29 -31
leaf_value=0.0085574431433564132 0.0085763493999838833 0.0055538189442207418 0.0065026466079332219 0.008305337167634019 -0.0024207824485832437 -0.00097578718651723318 0.011455030529230664 0.002457804963923991 -0.0006173574113442253 0.011385304596097698 0.0035889653576305137 0.0058659780271617433 -0.0020137420652836303 0.0080148344638291749 0.0060161717447706244 -0.00040310788088910546 -0.0021302715303355745 -0.0040295360913296463 0.0032024119049310685 -0.0019802982791546075 0.0046197564080075332 0.00025865485375990797 -0.00297854326745437 0.0050238192791986318 -0.0011804886201724387 0.00012912113740141297 0.0081678106744463245 0.0012983907550347575 -0.0007191050748769518 -0.0025104437583845138
leaf_weight=21 25 33 27 29 48 38 22 35 24 21 22 21 119 20 22 112 348 60 24 85 33 107 32 29 152 124 30 33 331 261
leaf_count=21 25 33 27 29 48 38 22 35 24 21 22 21 119 20 22 112 348 60 24 85 33 107 32 29 152 124 30 33 331 261
internal_value=0 -9.47454e-05 -0.000175787 -0.000257195 0.00247874 0.000914196 0.00358218 -0.000437572 4.59885e-05 0.00498388 -0.000122094 -0.000267405 0.000293611 0.000140444 -0.00114121 0.000650804 -0.00179021 -0.00136729 -0.00156533 0.000537883 0.00212765 0.00128663 1.34227e-05 0.000437088 0.0007341 0.000367133 0.00162509 0.00456954 -0.00174083 -0.00150887
internal_weight=0 2263 2242 2215 137 108 60 2078 1367 45 1322 1289 785 764 504 134 370 711 676 645 160 140 485 400 368 339 187 63 652 592
internal_count=2288 2263 2242 2215 137 108 60 2078 1367 45 1322 1289 785 764 504 134 370 711 676 645 160 140 485 400 368 339 187 63 652 592
is_linear=0
shrinkage=0.1


Tree=11
num_leaves=31
num_cat=0
split_feature=196 5 34 45 34 323 94 81 155 245 117 5 334 251 12 228 141 362 277 157 277 71 110 9 1 22 301 225 206 156
split_gain=0.172952 0.163694 0.409989 0.457399 0.0821157 0.0715174 0.0640469 0.161949 0.0810721 0.131905 0.206893 0.0655616 0.0624001 0.0643819 0.0798114 0.0628258 0.0591846 0.123042 0.0806657 0.0676901 0.0727116 0.0521431 0.0711733 0.0470312 0.0466295 0.0419034 0.0413677 0.0368535 0.0362594 0.0579047
threshold=-1.0177843425823001 -1.3349985640930975 -0.51842179914937636 0.056617723493947343 -1.0164283869402237 -1.9360549806746132 -0.32932841822295217 -0.78777319625267406 0.68262338469232298 0.59046095889253836 -0.068665848573956648 -0.94263139180426658 -0.57032981627488966 -1.0325162873422615 -0.12685805712735485 -0.64080234993430096 0.14189989363134581 -0.4837730997105591 -0.17715951227413099 -0.69493389777748849 -0.2150408862737675 0.18372665091866627 -0.1060656515439118 1.3009952382722372 0.46379616108533112 -0.52502520214753445 -1.2754120686968016 1.373053275493213 -0.44626809969600439 -1.0260643002205214
decision_type=2 2 2 2 2 2 2 2 2 2 2 2 2 2 2 2 2 2 2 2 2 2 2 2 2 2 2 2 2 2
left_child=-1 2 25 -4 -3 -6 7 -7 26 -10 -11 -9 -13 14 -14 -15 19 24 -19 -17 21 22 -21 -24 -18 -2 -8 28 -28 -30
right_child=1 4 3 -5 5 6 8 11 9 10 -12 12 13 15 -16 16 17 18 -20 20 -22 -23 23 -25 -26 -27 27 -29 29 -31
leaf_value=0.0092585109081119304 2.4817272621606079e-05 -0.0021937709381996558 0.0011361527598152559 0.019076980533147301 0.0051292366460144803 0.0067868852916245287 0.0028207224207178047 -0.0025861631056850222 -0.00067209015661050427 -0.00050236636432944928 0.010388551993916433 -0.0014231410714728556 0.00063170678875631775 -0.0016519242411977943 0.0092692023911513394 0.004473348544576229 0.00273520158448567 0.0033221009148595238 0.011921144293737598 -0.0016650459388781909 -0.0011726410271659605 0.005792435410398024 0.0060848745672653116 -8.5444941041281538e-05 -0.0031785224758399035 -0.005335570020601154 -0.0020931726283923919 0.0030096865468658509 0.0036634183979393654 -0.0010325785092197047
leaf_weight=20 35 203 30 27 26 39 26 77 142 37 33 140 23 99 20 39 30 24 20 54 193 27 30 21 24 25 354 20 28 422
leaf_count=20 35 203 30 27 26 39 26 77 142 37 33 140 23 99 20 39 30 24 20 54 193 27 30 21 24 25 354 20 28 422
internal_value=0 -8.16447e-05 0.00356105 0.00963444 -0.000279783 -8.03271e-05 -0.0001508 0.000490684 -0.000670269 0.00107924 0.00463192 0.000191595 0.000479078 0.00091999 0.00464915 0.000634154 0.00112403 0.00330536 0.00723076 0.000536747 6.43552e-05 0.00187299 0.000865137 0.00354415 0.00010688 -0.00220868 -0.00110662 -0.00123054 -0.00133601 -0.000740383
internal_weight=0 2268 117 57 2151 1948 1922 860 1062 212 70 821 744 604 43 561 462 98 44 364 325 132 105 51 54 60 850 824 804 450
internal_count=2288 2268 117 57 2151 1948 1922 860 1062 212 70 821 744 604 43 561 462 98 44 364 325 132 105 51 54 60 850 824 804 450
is_linear=0
shrinkage=0.1


Tree=12
num_leaves=31
num_cat=0
split_feature=224 176 150 81 93 2 258 297 182 254 0 47 350 324 324 94 169 234 171 344 349 232 133 271 113 91 326 118 209 290
split_gain=0.142698 0.122747 0.100008 0.311574 0.158428 0.0656774 0.0578654 0.106819 0.199408 0.0567594 0.0565506 0.0824941 0.0771143 0.0471661 0.0458713 0.0688891 0.0722859 0.0588881 0.0483866 0.0481294 0.0587354 0.0510385 0.0639285 0.0489002 0.0441131 0.0431581 0.0405429 0.0436592 0.0407389 0.0634379
threshold=4.374332235700364 -0.99543537727784659 0.7682785614157438 -0.91559091176147389 -1.9570429205699444 1.6097832660322666 0.38745137243293476 -0.65391479826903209 -0.65146549212346039 0.81005557116098326 0.10836120495503719 -1.0310446070146162 -0.18821097019312316 2.7458427959815404 -0.34332195829057427 -0.42093075075061431 -0.52845048624500623 -0.86744011964233059 -1.3533284270001549 -0.46162006598935651 0.31484081154199234 -0.47761247135853341 0.29843235499972376 -0.1357690996691315 0.59292548219757368 0.6793837027635562 -1.8988419509074583 -0.89857350507264067 -0.57963822641748119 -0.41785425694380263
decision_type=2 2 2 2 2 2 2 2 2 2 2 2 2 2 2 2 2 2 2 2 2 2 2 2 2 2 2 2 2 2
left_child=1 -1 3 -3 -5 13 7 8 9 -6 24 12 -12 26 15 19 -17 -16 -19 -9 21 -21 23 -23 -8 -25 -4 -28 29 -29
right_child=-2 2 5 4 6 -7 10 14 -10 -11 11 -13 -14 -15 17 16 -18 18 -20 20 -22 22 -24 25 -26 -27 27 28 -30 -31
leaf_value=0.007711490339133889 0.0070950535591691732 0.0098523490554229785 0.0027049418808892372 0.0081032667658291757 -0.0024060935096349568 -0.0055654706632006258 -0.0028252256585541047 -0.0009756622005388084 0.011291006650775672 0.0042811704897427593 -0.00048575130113888356 -0.0007015799414390036 0.0078957207500934597 0.0036124687154023422 0.0047208998727728615 0.0085486211729320621 0.0011921421980814022 0.0022614823148140442 -0.0011528007073425483 -0.0014647090810751429 -0.0038146931708546447 0.00013183237433199687 0.0074951825578781694 0.0056748398234472116 0.001839463555496996 0.00068295931218770051 -0.0031274441229786885 -0.0011474317045128352 -0.0016858772476980985 0.0033606738316569935
leaf_weight=20 28 33 25 24 30 34 171 165 25 22 21 346 23 21 20 22 34 46 425 41 21 86 22 43 23 29 115 86 238 49
leaf_count=20 28 33 25 24 30 34 171 165 25 22 21 346 23 21 20 22 34 46 425 41 21 86 22 43 23 29 115 86 238 49
internal_value=0 -8.79033e-05 -0.000157541 0.000231908 3.82079e-05 -0.00130395 -8.16444e-05 0.000368861 0.00395166 0.000423134 -0.000876972 -0.000182938 0.00389547 -0.00103261 7.96835e-05 0.000793763 0.00408219 -0.000593674 -0.000819346 0.000341301 0.00123923 0.00171947 0.00244475 0.00174153 -0.0022722 0.00366422 -0.00122276 -0.00142398 -0.00089878 0.000488844
internal_weight=0 2260 2240 1672 1639 568 1615 1031 77 52 584 390 44 534 954 463 56 491 471 407 242 221 180 158 194 72 513 488 373 135
internal_count=2288 2260 2240 1672 1639 568 1615 1031 77 52 584 390 44 534 954 463 56 491 471 407 242 221 180 158 194 72 513 488 373 135
is_linear=0
shrinkage=0.1


Tree=13
num_leaves=31
num_cat=0
split_feature=196 5 91 55 307 196 148 220 145 114 354 1 0 2 2 1 15 5 13 18 260 239 0 0 207 354 273 1 61 14
split_gain=0.12108 0.116809 0.330291 0.253793 0.0644601 0.13825 0.383152 0.102811 0.0759436 0.0494443 0.0596273 0.0532902 0.166137 0.393173 0.148599 0.110552 0.0785042 0.0604286 0.0542605 0.0594837 0.0502089 0.0490513 0.0505945 0.159435 0.133251 0.0655173 0.0535376 0.048986 0.0762802 0.0481934
threshold=-1.0177843425823001 -1.3349985640930975 0.062275113420575616 -0.71155254864889583 -1.114306976219277 -0.78986524968016247 -0.20498820332375967 -1.054472122719184 -0.53641082075085689 1.3608391602276224 1.6041665540497534 -0.50407356218297117 0.14679588138532723 -0.47084768575527169 -0.48228900594335611 -0.51069333507167969 0.68860357495803493 0.15921729934982706 -0.067949586919376137 0.14239004826155163 -0.12984374386298744 1.2626817597121358 1.2235890306768644 1.2107090542217149 0.30972352051963653 -0.25705711515198865 -0.38636179788694752 -1.1273494382079401 2.0903003144033736 0.30083599938767897
decision_type=2 2 2 2 2 2 2 2 2 2 2 2 2 2 2 2 2 2 2 2 2 2 2 2 2 2 2 2 2 2
left_child=-1 2 3 -2 -3 6 8 -7 -6 10 11 12 13 14 20 16 -16 18 19 -13 -9 22 23 26 25 -25 -14 -28 -29 -21
right_child=1 4 -4 -5 5 7 -8 9 -10 -11 -12 17 21 -15 15 -17 -18 -19 -20 29 -22 -23 -24 24 -26 -27 27 28 -30 -31
leaf_value=0.0077466569468379017 0.0088322951863692312 -0.0019743676524796553 0.014709896367276088 -0.0025805656186171939 0.0034126197388395668 -0.0068815987314219066 0.014272714950144292 0.0030722578987479213 -0.0040500875158856319 -0.0026186256645581666 0.0052508074041855129 0.00036929848063664398 -0.0030557364571158455 0.012030859404292547 0.010546460474974343 -0.0010644637245255022 0.002915529528847681 -0.0018426220464349504 -0.00077180513824099165 0.0011372684744525364 -0.0022043992169201373 -0.0023611905892549486 -0.0017893936491326788 0.0047835741288508871 0.010984508547446002 -0.0023054814844561569 -0.0025577530301617163 -0.00027277656772639602 0.0060483236863677001 0.0078346837489377888
leaf_weight=20 27 194 20 70 25 23 25 22 30 78 21 240 67 38 28 26 26 275 467 22 100 111 109 32 23 22 38 60 28 21
leaf_count=20 27 194 20 70 25 23 25 22 30 78 21 240 67 38 28 26 26 275 467 22 100 111 109 32 23 22 38 60 28 21
internal_value=0 -6.83127e-05 0.00300881 0.00059621 -0.000235687 -6.33296e-05 0.00400788 -0.00023685 -0.000657948 -0.000154418 -4.61922e-05 -0.000109575 0.000543383 0.00269896 0.000943457 0.00429286 0.00687231 -0.000574609 -0.000109671 0.000982968 -0.00125287 -0.00051241 2.9053e-05 0.000763167 0.00461036 0.00189544 -0.000771723 0.000442792 0.00173848 0.0044081
internal_weight=0 2268 117 97 2151 1957 80 1877 55 1854 1776 1755 730 240 202 80 54 1025 750 283 122 490 379 270 77 54 193 126 88 43
internal_count=2288 2268 117 97 2151 1957 80 1877 55 1854 1776 1755 730 240 202 80 54 1025 750 283 122 490 379 270 77 54 193 126 88 43
is_linear=0
shrinkage=0.1


Tree=14
num_leaves=31
num_cat=0
split_feature=339 176 124 93 81 307 321 2 0 1 0 75 1 176 349 60 21 0 2 238 175 128 126 365 352 278 102 143 32 288
split_gain=0.109791 0.0926346 0.0762938 0.165556 0.219933 0.0572641 0.0725356 0.06274 0.0534834 0.127804 0.113392 0.165268 0.0756889 0.105175 0.0616229 0.0575402 0.0817008 0.119461 0.0491208 0.0529309 0.0488236 0.0449982 0.0489186 0.0408957 0.0375928 0.036719 0.0361643 0.0348364 0.0667252 0.041716
threshold=4.2408269033696895 -0.99543537727784659 -0.76585430654113795 -1.9193771812529528 -0.91559091176147389 -0.84953721476553257 -1.1609464733778412 -0.90231599539854634 1.2235890306768644 -1.1213038154654313 1.1972716309200482 -0.48457501282429827 -1.1134836084176876 0.17324462711547248 0.11929002195415254 0.2987790126445849 1.0197354053380916 0.13756943297771382 1.6001080556718728 -0.93577052191812904 0.25706343300182727 -0.054588529779923206 -0.47426963337031852 2.3911127469901619 -0.45252332323563643 -1.0319175192930246 -1.0901505727259531 -0.11816602110604708 0.85446904699353998 -0.94985741288346237
decision_type=2 2 2 2 2 2 2 2 2 2 2 2 2 2 2 2 2 2 2 2 2 2 2 2 2 2 2 2 2 2
left_child=1 -1 23 -4 -5 -6 -7 -8 9 10 -9 14 -11 15 -12 16 18 -18 19 -14 21 22 -21 26 -15 -24 -3 28 29 -28
right_child=-2 2 3 4 5 6 7 8 -10 12 11 -13 13 24 -16 -17 17 -19 -20 20 -22 -23 25 -25 -26 -27 27 -29 -30 -31
leaf_value=0.0067027310631237935 0.0065906533822417263 0.0031976882767464432 0.0081210035044932734 0.01001083385622637 -0.001677107721927011 0.0059954070705792962 -0.0016479230322622006 -0.0023194963257992642 -0.0017736745671242137 -0.0035245347306972334 -0.0010143131349402458 0.01334053070115095 0.0038313272499686316 0.0081044834742153241 0.0065589743622002155 -0.0006571731736542707 0.0090016634653097612 0.00042959146667271854 0.0044870906742289661 -0.0023972560353947552 0.0046355088800191886 -0.0016653363150323981 0.0041792960630522838 -0.0037601970746268137 0.002322409937725119 0.00055149547404125183 0.0023871406607213434 -0.0022267371368709463 0.0051579535119526555 -0.0012408008666136327
leaf_weight=20 25 21 26 22 192 21 184 20 110 51 22 22 36 22 21 428 29 37 28 44 20 165 36 54 23 124 36 164 20 265
leaf_count=20 25 21 26 22 192 21 184 20 110 51 22 22 36 22 21 428 29 37 28 44 20 165 36 54 23 124 36 164 20 265
internal_value=0 -7.28088e-05 -0.000133224 0.000203196 7.89578e-05 -5.46821e-05 0.000161192 7.50323e-05 0.00033111 0.000536363 0.004265 0.006291 0.000232495 0.000425649 0.00268427 0.000201193 0.000909056 0.00419611 0.000430148 0.000162867 -0.000176631 -0.000437452 0.00055569 -0.00114429 0.0051492 0.00136775 -0.000865118 -0.00104103 -0.000435253 -0.000806894
internal_weight=0 2263 2243 1683 1657 1635 1443 1422 1238 1128 85 65 1043 992 43 947 519 66 453 425 389 369 204 560 45 160 506 485 321 301
internal_count=2288 2263 2243 1683 1657 1635 1443 1422 1238 1128 85 65 1043 992 43 947 519 66 453 425 389 369 204 560 45 160 506 485 321 301
is_linear=0
shrinkage=0.1


Tree=15
num_leaves=31
num_cat=0
split_feature=224 277 160 69 317 240 347 29 303 10 353 348 113 14 1 0 33 273 2 53 14 41 245 93 85 34 55 0 41 201
split_gain=0.0934139 0.108849 0.226519 0.0875319 0.189137 0.0687967 0.253941 0.0649585 0.0759962 0.0518914 0.0508714 0.0503412 0.127904 0.0463071 0.113432 0.119805 0.152055 0.0463211 0.0544645 0.0586223 0.0712644 0.0421614 0.0394434 0.0350381 0.0341196 0.0424798 0.0430098 0.0324898 0.0651968 0.0311936
threshold=4.374332235700364 3.1796837546091647 0.71900704245550651 -1.3036851535259182 0.014438371169185759 -1.2951549227232559 -0.42771728918569352 -1.6856674540738801 -1.1288195628711104 -1.3620148260522933 0.18013521647688205 -0.59255073472346764 0.26107647706802406 1.1144983739134267 -0.50507295697164323 0.14679588138532723 -0.23519379859970202 -0.61810588918923948 1.5957311747945517 -0.41419283556068459 0.20403981092690121 -0.90956587762973018 0.76390847470482115 -2.0134065050226209 -0.82609772518880342 -0.0040424447974742516 -0.22627963565327167 0.15355839150975337 -0.10968517192230835 -1.0049223128798188
decision_type=2 2 2 2 2 2 2 2 2 2 2 2 2 2 2 2 2 2 2 2 2 2 2 2 2 2 2 2 2 2
left_child=1 2 3 4 -1 6 9 -7 23 24 11 -10 13 17 15 16 -15 22 19 20 27 -12 -13 -9 -5 26 -26 -19 -29 -23
right_child=-2 -3 -4 5 -6 7 -8 8 10 -11 21 12 -14 14 -16 -17 -18 18 -20 -21 -22 29 -24 -25 25 -27 -28 28 -30 -31
leaf_value=-0.0023456943036580923 0.0057405415356957491 -0.0070707838140978392 0.0098705906906853547 -0.0037469477812533806 0.011407016904558987 0.0044236468350780864 0.0090663730544415684 -0.0060323891096881466 -0.0012898544632422562 0.0044957881618756801 0.0034818120516138156 -0.0014848271579054034 0.0069881484791102571 0.001791675035255375 -0.0022525905064650856 -0.00055755883427884652 0.012506103673233435 -0.001165482088819974 0.0042667805010245903 -0.00056479160690347337 0.0064844613751539812 0.001445173453426034 0.002243109298797208 -0.0017464461482509599 0.0055273937177844346 -0.0024723191181412682 -0.00042063154753357651 0.0061141320064456925 0.00053225514210709902 -0.0014319075202084593
leaf_weight=20 28 22 23 33 20 28 37 21 201 20 20 251 29 27 42 34 26 54 36 333 26 41 32 208 20 39 31 27 93 466
leaf_count=20 28 22 23 33 20 28 37 21 201 20 20 251 29 27 42 34 26 54 36 333 26 41 32 208 20 39 31 27 93 466
internal_value=0 -7.11218e-05 -2.31364e-06 -0.000104831 0.00453066 -0.000190082 0.00168228 -0.000359017 -0.000427097 -0.000228291 -0.000201473 0.000155426 0.000443052 0.000249568 0.00201526 0.0040756 0.00704781 -1.77727e-05 0.000502232 0.000247966 0.00160121 -0.00102159 -0.00106329 -0.00213948 -0.000996434 1.20872e-05 0.00191193 0.000871524 0.00178818 -0.00119924
internal_weight=0 2260 2238 2215 40 2175 180 1995 1967 143 1738 1211 1010 981 129 87 53 852 569 533 200 527 283 229 123 90 51 174 120 507
internal_count=2288 2260 2238 2215 40 2175 180 1995 1967 143 1738 1211 1010 981 129 87 53 852 569 533 200 527 283 229 123 90 51 174 120 507
is_linear=0
shrinkage=0.1


Tree=16
num_leaves=31
num_cat=0
split_feature=2 101 182 151 104 66 46 148 332 311 304 183 361 2 286 271 279 83 35 26 54 30 362 0 115 96 47 284 284 0
split_gain=0.0870126 0.0861343 0.585786 0.190925 0.0862058 0.151937 0.0869991 0.0465952 0.0964701 0.0417505 0.0391896 0.0436269 0.0855024 0.0371964 0.0337575 0.0333975 0.0328586 0.0319666 0.0300348 0.0306135 0.0496848 0.0432431 0.0310604 0.0333354 0.0316414 0.0299811 0.0282043 0.0278532 0.0531195 0.0395969
threshold=3.327900978840288 -1.0687579632546116 1.0000000180025095e-35 -0.36062678834742173 0.28908017070857467 -0.20210496118058133 2.859249260068276 0.57083118868672067 0.80452106112622479 -0.58750249384342068 -0.96274794801303398 0.75704534989338768 0.024014964250414998 1.6027956141053152 1.434123895816138 -1.7320113482880395 -0.89030288752798459 -0.80883966402009722 -1.4549789171304373 0.13593185806647765 -0.68071027693198982 0.068723970850251795 -0.47502324028314685 0.13931737264989055 -0.86516837584832074 1.3732076961736241 1.5763389702412991 -0.55708246369760472 -0.72179195542155616 0.27356943437203612
decision_type=2 2 2 2 2 2 2 2 2 2 2 2 2 2 2 2 2 2 2 2 2 2 2 2 2 2 2 2 2 2
left_child=1 2 3 16 6 17 7 9 18 10 26 -12 -13 14 15 -11 -1 -6 -9 22 -21 -22 23 -20 -25 27 -3 28 -17 -30
right_child=-2 4 -4 -5 5 -7 -8 8 -10 13 11 12 -14 -15 -16 25 -18 -19 19 20 21 -23 -24 24 -26 -27 -28 -29 29 -31
leaf_value=-0.0013596765135979636 0.0055403639196551276 -0.0049490430365698021 0.017713856581775916 0.0071729081208710957 0.0018673741450766102 0.0074873231267795354 -0.0062075382545590399 -0.0032715489588251026 0.0055446985441247112 0.0036533081205561758 -0.0014067889781608901 -0.0013808669392293431 0.0068592171062482532 0.00376268706648894 -0.0034503543128569926 -0.00044648286630442967 -0.0055538053203734658 -0.0035458204685710373 0.0041637401492334901 0.0055834235056586891 0.0020001635804614386 -0.00092581031156283716 -0.0021301913268786544 -0.0034182797707617285 0.00054391541866957249 0.0028280312104228267 -0.0007918061064556242 -0.00080378290326787853 0.0012346817766097432 0.0060953764910144474
leaf_weight=47 28 47 21 24 20 39 25 24 36 22 313 34 20 23 33 268 31 24 20 23 112 92 75 25 104 30 25 599 83 21
leaf_count=47 28 47 21 24 20 39 25 24 36 22 313 34 20 23 33 268 31 24 20 23 112 92 75 25 104 30 25 599 83 21
internal_value=0 -6.86417e-05 0.00250462 -0.000626696 -0.000216752 0.00294281 -0.000344426 -0.000272185 0.000553767 -0.000550223 -0.00137242 -0.000953924 0.00167102 -0.000215707 -0.000302358 -0.00020081 -0.00302657 -0.00108528 0.000175507 0.000358943 0.00117737 0.000680607 -0.000470443 0.000365 -0.000223952 -0.000285515 -0.00350556 -0.000381712 0.000297914 0.00221617
internal_weight=0 2260 123 102 2137 83 2054 2029 511 1518 439 367 54 1079 1056 1023 78 44 475 451 227 204 224 149 129 1001 72 971 372 104
internal_count=2288 2260 123 102 2137 83 2054 2029 511 1518 439 367 54 1079 1056 1023 78 44 475 451 227 204 224 149 129 1001 72 971 372 104
is_linear=0
shrinkage=0.1


Tree=17
num_leaves=31
num_cat=0
split_feature=109 277 275 148 323 13 259 176 184 245 70 115 271 6 219 272 350 357 103 180 149 129 262 348 1 1 35 1 0 1
split_gain=0.0782202 0.0619302 0.176907 0.0516843 0.278215 0.0706455 0.0546357 0.0481261 0.0463075 0.0705022 0.0927046 0.0421071 0.0394649 0.0351787 0.0317777 0.0761215 0.0494464 0.112148 0.0375984 0.0347663 0.0949269 0.032522 0.0323853 0.0295514 0.0408235 0.0657874 0.0267929 0.0331263 0.110977 0.0452689
threshold=4.2528057332595939 3.1796837546091647 0.72232894061407038 0.53055433886858772 -1.4189626328547618 -0.041167726549783352 -1.6968422639857013 -0.91451778209075096 -0.82383704476926789 -0.47261775336293815 1.0000000180025095e-35 0.14828744010944059 -1.7320113482880395 -1.0828875403997231 0.32646505386932356 -0.7005515055294248 0.10761884995465264 -0.16430379717330165 -0.93104491405410439 -0.79051250936968709 -0.76935897179476898 1.1148142605101339 -0.58587102096799404 -0.59255073472346764 -0.51239892988158675 -0.50407356218297117 -1.4549789171304373 -0.50746980196125646 0.14033163951110991 -1.1222302821319705
decision_type=2 2 2 2 2 2 2 2 2 2 2 2 2 2 2 2 2 2 2 2 2 2 2 2 2 2 2 2 2 2
left_child=1 2 3 6 -5 7 -1 11 9 10 -8 -6 -10 -11 18 -16 22 -18 -14 20 -20 -21 -17 -23 -25 -26 -9 28 -28 -30
right_child=-2 -3 -4 4 5 -7 8 26 12 13 -12 -13 14 -15 15 16 17 -19 19 21 -22 23 -24 24 25 -27 27 -29 29 -31
leaf_value=0.0042374934656545524 0.0050726253876928239 -0.005229943448110768 0.0087106609494303888 0.012281745038926602 0.0066148171317763627 0.0051876618061214687 -0.00095302504236719366 -0.0026789890924680173 0.0039937974313612691 -0.0063231280539184816 0.0065981795340554709 0.00027500779330942099 -0.0033086624216632624 -0.0021101446107204538 0.0066056018194649378 0.0026066602776653224 0.0087305284640751789 -0.0018594871601089837 -0.00085215856128935386 -0.00085376774701015541 0.0073502361286608949 -0.00076350056450323655 -0.00088181959041282838 -0.00055992831996373943 0.0083455367921851566 0.00065081915864720948 0.0071913468921557082 -0.00073855510568979232 0.0011192571018088324 -0.0023724500960253074
leaf_weight=25 30 23 23 20 20 28 72 41 22 22 21 22 47 200 20 31 20 20 43 713 21 66 188 33 20 25 25 270 124 53
leaf_count=25 30 23 23 20 20 28 72 41 22 22 21 22 47 200 20 31 20 20 43 713 21 66 188 33 20 25 25 270 124 53
internal_value=0 -6.73954e-05 -1.42685e-05 -0.000104989 0.000684609 0.000286766 -0.000400904 3.95131e-05 -0.000474111 -0.00155935 0.000752086 0.00329396 -0.000204727 -0.00252765 -0.000278798 0.000661496 0.000202491 0.00343552 -0.000549813 -0.000409025 0.00183925 -0.000576924 -0.000388017 0.000793837 0.00211158 0.00407069 -0.000226933 -1.39368e-05 0.000954612 7.37177e-05
internal_weight=0 2258 2235 2212 603 583 1609 555 1584 315 93 42 1269 222 1247 279 259 40 968 921 64 857 219 144 78 45 513 472 202 177
internal_count=2288 2258 2235 2212 603 583 1609 555 1584 315 93 42 1269 222 1247 279 259 40 968 921 64 857 219 144 78 45 513 472 202 177
is_linear=0
shrinkage=0.1


Tree=18
num_leaves=31
num_cat=0
split_feature=160 101 182 149 116 94 348 251 343 244 0 278 1 1 58 49 176 173 349 99 96 211 113 15 1 143 143 44 241 346
split_gain=0.0676027 0.0680623 0.46448 0.150118 0.0445031 0.0500757 0.043357 0.0441998 0.104994 0.0420705 0.0676358 0.0745252 0.110987 0.0388885 0.0346326 0.0344807 0.0285104 0.0328446 0.0497875 0.0437032 0.0436603 0.052802 0.0505287 0.0501412 0.0792765 0.0334576 0.0431265 0.0312563 0.0312457 0.0294651
threshold=0.73379463060396743 -1.0687579632546116 1.0000000180025095e-35 -0.48349410843079577 2.5291094949401258 3.0176555007016641 -0.59255073472346764 1.6759351086017373 -0.39429837893600977 1.2884975819145468 0.14679588138532723 -0.53774533168238825 -0.50665001702506152 -1.1254868488865652 -0.27746272296917524 -0.85718269116043611 -0.99301817069058951 -0.14706513092121667 1.1503760034173089 -0.57154046110295986 -0.6611070362917153 -0.38223477895583974 0.63485954915660658 0.32570308195868219 0.07223529031278017 0.29106675955045275 -0.09683632820769203 -0.28759154960660122 -0.072358451292035747 -0.66073523536465018
decision_type=2 2 2 2 2 2 2 2 2 2 2 2 2 2 2 2 2 2 2 2 2 2 2 2 2 2 2 2 2 2
left_child=1 2 3 15 5 6 13 9 -9 16 11 12 -11 -3 -13 -1 -8 18 19 -18 -21 23 25 -22 -25 26 27 -23 -28 -19
right_child=-2 4 -4 -5 -6 -7 7 8 -10 10 -12 14 -14 -15 -16 -17 17 29 -20 20 21 22 -24 24 -26 -27 28 -29 -30 -31
leaf_value=-0.0015826834312555058 0.0043611459367509401 0.0027506048689247111 0.015762684609563576 0.0045159504213999656 -0.0026091845268859512 0.0040869610411521408 -0.003727257247690274 0.00014549883998162777 0.0084169681533239789 0.01090647604154504 -0.001453360874081994 -0.0012350052101990313 0.00072074361261911693 -0.0014104836658703529 0.003801093516151675 -0.0062840703624085746 -0.0021127586177464787 0.0022946357155066632 0.0045625851874669587 -0.00077280183695414752 0.00013253350582946203 0.00093342320668501867 0.0047389591240789746 0.0020961932728395744 0.01003060156479478 -0.0011728601731234589 0.00079456199999657225 -0.0022858293797430951 0.0055218123889062554 -0.00086687398588916403
leaf_weight=39 35 24 21 37 74 28 23 57 21 23 51 36 20 350 22 26 79 31 26 221 34 101 25 34 20 130 27 43 29 601
leaf_count=39 35 24 21 37 74 28 23 57 21 23 51 36 20 350 22 26 79 31 26 221 34 101 25 34 20 130 27 43 29 601
internal_value=0 -6.77497e-05 0.00221948 -0.000568827 -0.000199829 -0.000113111 -0.0001711 4.87687e-05 0.00237243 -6.6235e-05 0.00151517 0.00301414 0.00616893 -0.00114346 0.000675239 -0.00346324 -0.000235037 -0.000177706 0.000261238 0.000110719 0.00037526 0.000947995 0.000404431 0.00314078 0.00503486 7.60575e-05 0.000887854 -2.78814e-05 0.0032426 -0.0007118
internal_weight=0 2253 123 102 2130 2056 2028 1654 78 1576 152 101 43 374 58 65 1424 1401 769 743 664 443 355 88 54 330 200 144 56 632
internal_count=2288 2253 123 102 2130 2056 2028 1654 78 1576 152 101 43 374 58 65 1424 1401 769 743 664 443 355 88 54 330 200 144 56 632
is_linear=0
shrinkage=0.1


Tree=19
num_leaves=31
num_cat=0
split_feature=109 277 275 233 240 242 362 154 252 6 0 0 171 1 1 2 353 353 2 359 95 156 275 21 0 0 2 2 116 0
split_gain=0.0641102 0.0599927 0.133207 0.0411539 0.0402703 0.19347 0.0936639 0.042174 0.0337698 0.118403 0.0556831 0.0951611 0.224827 0.0699807 0.151213 0.0478935 0.0306099 0.0399448 0.0343526 0.0719942 0.0301748 0.0298285 0.0323989 0.028783 0.0283618 0.0701259 0.115653 0.125122 0.0465838 0.0388438
threshold=4.2528057332595939 3.1796837546091647 0.72232894061407038 -1.0679264839559095 -1.2435755725788977 0.35280239128676971 -0.39569499271806452 -0.95825149450265834 -0.1053620946126315 -0.90579104466177229 0.10836120495503719 0.13931737264989055 0.79326646230296982 -0.50665001702506152 -0.51889321727326876 0.52208997432609316 0.13423985784437922 0.090086306252448969 1.5968061981679289 -0.36789460335468088 -0.26912347110134444 0.38197653706514006 0.047796136151272629 0.18127029362463923 1.2235890306768644 1.2003962230567466 -0.90139454679279452 -0.89740160283453696 -0.56702794590461181 0.15912705458079371
decision_type=2 2 2 2 2 2 2 2 2 2 2 2 2 2 2 2 2 2 2 2 2 2 2 2 2 2 2 2 2 2
left_child=1 2 3 -1 5 6 20 21 16 -10 -11 12 13 14 -12 -15 17 18 -9 -20 23 22 -6 -5 25 29 -27 -28 -29 -13
right_child=-2 -3 -4 4 7 -7 -8 8 9 10 11 24 -14 15 -16 -17 -18 -19 19 -21 -22 -23 -24 -25 -26 26 27 28 -30 -31
leaf_value=0.0037219854487505347 0.004592372120047609 -0.0051421646838602821 0.0075622772676465309 0.0031772156334703879 -0.001370463343701738 0.010557012088829651 0.0044680436165669022 -0.0005076974268592245 0.0079354594019241647 -0.0012676599590174323 -0.003231267096707598 0.00076741048009048066 0.010261202233959921 -0.0032619452977087349 0.0079215149244954517 0.0026398852933198214 -0.0013114482036417588 0.00409617563974197 0.0067922474024817358 -0.0016926912886628999 -0.0032849653755050012 0.0018539305077865721 -0.0048557959579592271 -0.0010582254423164106 -0.0017019466673339008 -0.0021393941396099488 0.011052180343793462 -0.001616907065617852 0.005126581598250639 -0.0013515209282432773
leaf_weight=28 30 23 23 21 191 20 39 452 20 210 20 161 32 44 31 20 326 22 20 20 43 24 31 68 85 33 23 20 21 187
leaf_count=28 30 23 23 21 191 20 39 452 20 210 20 161 32 44 31 20 326 22 20 20 43 24 31 68 85 33 23 20 21 187
internal_value=0 -6.10147e-05 -8.72545e-06 -8.74475e-05 -0.000136286 0.0012508 0.000162353 -0.000269218 -9.65988e-05 0.000326512 0.000154946 0.000596227 0.00284743 0.000784467 0.00354787 -0.00141762 -0.000553458 -7.27087e-05 -0.000259122 0.00254978 -0.00110978 -0.0014951 -0.00185715 -5.88517e-05 -2.81634e-05 0.000291548 0.00266928 0.00514875 0.00183707 -0.000371211
internal_weight=0 2258 2235 2212 2184 191 171 1993 1747 907 887 677 147 115 51 64 840 514 492 40 132 246 222 89 530 445 97 64 41 348
internal_count=2288 2258 2235 2212 2184 191 171 1993 1747 907 887 677 147 115 51 64 840 514 492 40 132 246 222 89 530 445 97 64 41 348
is_linear=0
shrinkage=0.1


Tree=20
num_leaves=31
num_cat=0
split_feature=2 285 291 196 54 163 323 55 255 307 297 0 1 1 5 311 329 0 0 281 43 0 317 0 107 145 79 197 45 350
split_gain=0.0589524 0.0598339 0.113912 0.104623 0.272418 0.0757906 0.0479432 0.28567 0.10762 0.0427314 0.0348479 0.0327885 0.0297883 0.144281 0.0624822 0.0650602 0.0578081 0.0465674 0.0845109 0.0811387 0.0744133 0.0566308 0.0613936 0.115798 0.0423878 0.0397489 0.0378083 0.0352229 0.0447296 0.0349187
threshold=3.327900978840288 1.2105084510481008 -0.9940219086212948 -0.91530294121797395 -0.13111470102306566 0.73750742966921223 -1.9021240344599859 -0.47108728779481596 0.49079430805911201 -0.68607527329703888 -0.59668122280364233 1.2360605654018402 -0.50665001702506152 -0.50904000118088522 -0.056218371100179292 -0.40160397748792603 -0.75345997419953081 0.08983490215608618 0.15420175818959295 0.13099730897467018 -1.3419653908437092 1.2003962230567466 -0.55806275219274071 1.2183013486823613 0.24453445316915992 -1.3321821548579147 1.6874230054167192 0.1625142330701628 -0.28980773772541851 -0.14128032685985828
decision_type=2 2 2 2 2 2 2 2 2 2 2 2 2 2 2 2 2 2 2 2 2 2 2 2 2 2 2 2 2 2
left_child=1 2 -1 4 -4 -3 7 -5 -9 10 -8 12 13 16 15 26 -11 -18 19 20 -19 25 23 -23 -24 -20 -14 -22 -29 -26
right_child=-2 5 3 6 -6 -7 9 8 -10 11 -12 -13 14 -15 -16 -17 17 18 21 -21 27 22 24 -25 29 -27 -28 28 -30 -31
leaf_value=0.0075860020983964209 0.0045603464157985786 -0.0010535923207624302 0.013514040708541869 0.012559301890432834 -0.0018841608298114606 -0.0074554633772508667 0.0016826068245184918 0.0035689127504486932 -0.0058532653014279077 -0.004478879459687354 -0.0014733872474479381 -0.0022618373367004098 -4.4026208402258929e-06 0.0078023517605322048 -0.0012352358896615141 0.0048172652757784819 -0.0022662557208807106 0.0067860939056592316 0.002142462958668588 0.0075965005085514544 0.0036561394911259412 0.010163186909630896 -0.0014404977201151531 -0.00035034902393817904 0.0041442285430290408 -0.0017584005085856083 0.004431157822255046 -0.0030246006753785835 0.0020939775652462438 -0.00036682150794149494
leaf_weight=20 28 116 20 20 27 22 39 22 27 24 340 60 491 27 375 32 54 23 31 29 25 20 70 22 37 166 20 38 31 32
leaf_count=20 28 116 20 20 27 22 39 22 27 24 340 60 491 27 375 32 54 23 31 29 25 20 70 22 37 166 20 38 31 32
internal_value=0 -5.64999e-05 7.47159e-05 3.24794e-06 0.00466827 -0.00207418 -0.000103446 0.00248788 -0.0016229 -0.000193477 -0.00114863 3.17889e-05 0.000120747 0.000650866 -0.000242483 0.00044312 0.000330118 0.000529799 0.000817943 0.00286137 0.00168771 2.86806e-05 0.00130563 0.0046561 0.000293261 -0.00114456 0.000169201 0.000440234 -0.00072495 0.00205215
internal_weight=0 2260 2122 2102 47 138 2055 69 49 1986 379 1607 1547 629 918 543 602 578 524 146 117 378 181 42 139 197 511 94 69 69
internal_count=2288 2260 2122 2102 47 138 2055 69 49 1986 379 1607 1547 629 918 543 602 578 524 146 117 378 181 42 139 197 511 94 69 69
is_linear=0
shrinkage=0.1


Tree=21
num_leaves=31
num_cat=0
split_feature=348 240 77 160 69 353 51 232 118 101 334 249 309 341 116 270 185 357 275 107 177 62 255 353 69 352 14 65 33 46
split_gain=0.0512331 0.0803454 0.190558 0.0863206 0.052511 0.0489533 0.0463415 0.0398639 0.0342031 0.0874916 0.0309262 0.0352087 0.0439822 0.0297908 0.0832942 0.0801935 0.0252048 0.0244927 0.0227418 0.0224082 0.0220766 0.0496787 0.0533564 0.0379654 0.036509 0.0286836 0.0242697 0.0225748 0.0220113 0.0214323
threshold=-0.59255073472346764 -1.2161694360672419 -0.77006204660047539 1.4728349787458712 -1.3036851535259182 -0.16215333412763225 -0.65621669460198517 3.2757168523604254 -0.97079363983113509 -1.0687579632546116 0.39452751115139689 -0.016105955964942065 0.50170285985941587 -0.48782420987649849 0.22161160467234045 0.65402685381822956 -1.1714191629564177 -0.2697182746231867 0.05084906615172638 -0.27607013602301095 -0.75586121804496675 -0.71010810950532277 0.29920568124298358 0.17539271535001208 1.2907665082783872 0.33197586974568533 -0.88048623304612572 -0.85165139824601399 0.20200844692220665 0.53416476554953474
decision_type=2 2 2 2 2 2 2 2 2 2 2 2 2 2 2 2 2 2 2 2 2 2 2 2 2 2 2 2 2 2
left_child=10 2 -2 4 -3 -4 -7 8 18 -10 17 12 -12 14 19 -16 -15 -1 -6 -11 26 22 -22 24 25 27 -18 -23 -21 -28
right_child=1 3 5 -5 7 6 -8 -9 9 13 11 -13 -14 16 15 -17 20 -19 -20 28 21 23 -24 -25 -26 -27 29 -29 -30 -31
leaf_value=-0.0010694431683426957 0.010237137745850935 0.0039661199174588551 0.0037482078867278213 0.0064036560821391286 -0.00013968806296977545 0.0029776632338762285 -0.0022003529019327421 -0.0034626830202926489 0.006456714824612607 0.0017256382423185453 0.0059639730756836278 -0.001089137864723203 -0.00058850615634582944 0.0027216034460642341 0.00074236464459404711 0.0095901985373348011 0.0010144914477779013 -0.0033192933321697636 -0.0037289592948537773 0.00024905616418691352 0.00056879787419059471 0.0024655225476430311 0.0068689516437007124 -0.0011696190584415725 0.0032768420156623641 0.0036850679491180929 -0.0014079501290017596 -0.00030433200490372438 -0.0023301491674242751 -0.0049243129417300231
leaf_weight=250 26 32 38 21 31 25 56 35 21 67 21 56 20 28 21 20 36 60 41 125 41 31 20 337 35 20 130 579 45 20
leaf_count=250 26 32 38 21 31 25 56 35 21 67 21 56 20 28 21 20 36 60 41 125 41 31 20 337 35 20 130 579 45 20
internal_value=0 0.000220115 0.00248151 3.12313e-05 -4.67984e-05 0.000787006 -0.0006022 -0.000123099 -5.21731e-05 4.52008e-05 -0.00101729 0.000541047 0.00276764 -4.13856e-05 0.000896715 0.00505838 -0.000245608 -0.0015049 -0.00218358 0.000176764 -0.000312127 -0.000136263 0.00263442 -0.000304938 0.000133254 -4.139e-05 -0.00131719 -0.000163569 -0.000433675 -0.0018768
internal_weight=0 1881 145 1736 1715 119 81 1683 1648 1576 407 97 41 1555 278 41 1277 310 72 237 1249 1063 61 1002 665 630 186 610 170 150
internal_count=2288 1881 145 1736 1715 119 81 1683 1648 1576 407 97 41 1555 278 41 1277 310 72 237 1249 1063 61 1002 665 630 186 610 170 150
is_linear=0
shrinkage=0.1


Tree=22
num_leaves=31
num_cat=0
split_feature=277 275 291 307 73 354 360 297 48 272 13 91 156 150 231 57 46 358 1 1 261 149 190 33 1 48 111 111 81 241
split_gain=0.0515022 0.168005 0.0426441 0.03742 0.204348 0.0270052 0.0382886 0.0392786 0.0848087 0.0832903 0.0418699 0.0584076 0.0404136 0.0356734 0.0275187 0.0486944 0.0572984 0.033525 0.0325237 0.0868761 0.0372118 0.0321663 0.0267235 0.0238685 0.0223478 0.021228 0.0249145 0.0264 0.0228629 0.021056
threshold=3.1796837546091647 0.72232894061407038 -0.99547622392455692 -1.114306976219277 -1.2053963167917559 -0.16315320428670019 -0.4591053443028465 -0.63430404628437398 -0.28275204930944359 -0.44531469970006865 -0.0500594969170867 -0.80493173177592425 -1.126162907025603 1.5511579598741492 -0.21357439091152106 -0.57232975864458269 -0.20137056762655539 -0.25460188460098415 -0.50746980196125646 -0.51185518762835513 1.2992642992309522 1.7233097195573917 -0.21567150063843257 -0.01830754434933091 -1.1254868488865652 2.0843875766751441 0.43734842757275921 1.0168234822972464 -0.71842985004757742 0.058388211715703443
decision_type=2 2 2 2 2 2 2 2 2 2 2 2 2 2 2 2 2 2 2 2 2 2 2 2 2 2 2 2 2 2
left_child=1 2 -1 -4 -5 6 24 8 -8 -10 11 -11 -9 25 17 -16 22 18 19 21 29 -14 -17 -22 -6 26 28 -28 -7 -20
right_child=-2 -3 3 4 5 13 7 12 9 10 -12 -13 14 -15 15 16 -18 -19 20 -21 23 -23 -24 -25 -26 -27 27 -29 -30 -31
leaf_value=0.0044419465896983947 -0.0047082017297330114 0.0082001255229115482 -0.0013111421145384026 0.010109291290864349 0.0020782033857055164 0.0015814416764849991 0.0070725696931521476 0.0033767215976503828 0.0068419998834724537 0.0042242336825334603 -0.0029835144484726094 -0.0010805147745664798 -0.00013385387987756495 0.0032948584517552741 -0.00073495344874834826 0.0082193473394727348 -4.30474647146184e-05 -0.0011665997634073561 -0.00054536228988007153 0.0058290622738080434 -0.00040866002617847359 0.0034058043937451052 0.0031117806227744689 -0.0049037851246625736 -0.001100931119950972 -0.003816018725046888 0.002441921862588391 -0.0017387783438291239 -0.0013547600348216484 0.0010613285635436901
leaf_weight=21 23 25 224 20 24 29 26 38 20 35 36 51 178 21 59 20 32 236 228 34 21 30 21 27 281 24 44 23 310 127
leaf_count=21 23 25 224 20 24 29 26 38 20 35 36 51 178 21 59 20 32 236 228 34 21 30 21 27 281 24 44 23 310 127
internal_value=0 4.78096e-05 -4.31761e-05 -8.56221e-05 5.19802e-05 -4.9866e-05 0.000151291 0.000402012 0.0018218 0.00086039 -0.000120202 0.00107839 0.000175063 -0.000729609 5.49609e-05 0.00140147 0.00312818 -0.000146787 0.000226354 0.00114271 -0.000323915 0.000376674 0.00560328 -0.00293717 -0.00085077 -0.000926153 -0.000755323 0.00100676 -0.00110358 2.94257e-05
internal_weight=0 2265 2240 2219 1995 1975 1524 1219 168 142 122 86 1051 451 1013 132 73 881 645 242 403 208 41 48 305 430 406 67 339 355
internal_count=2288 2265 2240 2219 1995 1975 1524 1219 168 142 122 86 1051 451 1013 132 73 881 645 242 403 208 41 48 305 430 406 67 339 355
is_linear=0
shrinkage=0.1


Tree=23
num_leaves=31
num_cat=0
split_feature=109 343 2 285 163 363 238 34 344 98 296 15 55 177 40 144 129 96 156 13 323 94 0 54 348 0 49 1 207 51
split_gain=0.0474885 0.0419943 0.0896571 0.0395659 0.0534932 0.0432883 0.12955 0.250281 0.0971147 0.0711233 0.145548 0.0407548 0.0349312 0.0284157 0.0290058 0.0308825 0.0295001 0.029913 0.0390268 0.037602 0.027025 0.0248221 0.0245256 0.0315185 0.0285003 0.0239328 0.0243434 0.0208162 0.0200907 0.0228173
threshold=4.2528057332595939 2.5789434291339997 3.327900978840288 1.2105084510481008 0.89942689761954009 -0.43493256567411603 -1.0136885541910605 -0.4937622368426805 -0.64927919604469364 -0.77568511162950149 -0.74316399113072806 0.88456926808793546 1.0374533335568754 -1.0247488670896445 0.74078057502353334 1.5474723713656895 -0.15083061673945233 0.90483457379817778 -0.81027019782986731 -0.070684880795952046 -2.0222403038747032 -0.66571468964440317 1.2003962230567466 -0.81984410736213087 -0.15284788807547517 0.41578688388510471 -0.61577376945040274 -0.51319703119494053 0.4820876700329641 0.32948142930792607
decision_type=2 2 2 2 2 2 2 2 2 2 2 2 2 2 2 2 2 2 2 2 2 2 2 2 2 2 2 2 2 2
left_child=1 2 3 5 25 13 7 -7 -8 10 21 12 20 -1 15 16 -15 18 19 -18 -11 -10 23 24 27 26 -5 -20 29 -22
right_child=-2 -3 -4 4 -6 6 8 -9 9 11 -12 -13 -14 14 -16 -17 17 -19 22 -21 28 -23 -24 -25 -26 -27 -28 -29 -30 -31
leaf_value=-0.0038613263623450294 0.0039524593398285414 -0.0029787446270347576 0.0065139774853984521 -0.00045114648838837941 -0.006500597700942308 -0.0013104497113751925 0.0063387569990551972 0.014146100785583258 0.0023109482063557066 -0.0037196929376848323 0.0095278397000030345 0.003904978431422602 0.0035210030131219401 -0.00050141178415712736 -0.0019464306414390552 -0.0022214014222845433 0.005653594769537449 0.002529292277265058 0.0027636090942126301 0.00022192002999453021 2.6230891810319878e-05 -0.0010877904400165956 0.0023604961556907842 -0.00068825473313415399 0.0045058668449359093 0.0012364221639775983 -0.0041665111845038058 -0.0012638497315382473 -0.0020383608346299961 -0.0022200621826592467
leaf_weight=22 30 48 21 45 20 22 26 20 42 27 23 22 21 548 92 65 25 66 21 26 399 44 39 331 23 36 29 33 71 51
leaf_count=22 30 48 21 45 20 22 26 20 42 27 23 22 21 548 92 65 25 66 21 26 399 44 39 331 23 36 29 33 71 51
internal_value=0 -5.25127e-05 1.10434e-05 -5.1342e-05 -0.00174332 5.5485e-05 0.000649968 0.00604981 0.00033758 0.000114679 0.00246181 -0.000318209 -0.000481496 -0.000298166 -0.000236393 -0.000102728 2.11152e-05 0.000528819 0.000263696 0.00288451 -0.000634877 0.000572059 -3.53228e-05 -0.000264335 0.00155797 -0.000878357 -0.00190717 0.000302384 -0.000475011 -0.000228349
internal_weight=0 2258 2210 2189 130 2059 768 42 726 700 109 591 569 1291 1269 1177 1112 564 498 51 548 86 447 408 77 110 74 54 521 450
internal_count=2288 2258 2210 2189 130 2059 768 42 726 700 109 591 569 1291 1269 1177 1112 564 498 51 548 86 447 408 77 110 74 54 521 450
is_linear=0
shrinkage=0.1


Tree=24
num_leaves=31
num_cat=0
split_feature=354 346 13 277 4 238 2 311 4 0 0 1 2 43 7 114 2 112 20 47 99 2 276 67 233 0 0 207 0 0
split_gain=0.0415035 0.209798 0.0832653 0.0361372 0.0325756 0.0984662 0.0406304 0.0320957 0.0312128 0.0316927 0.0634448 0.186185 0.249479 0.0859763 0.0584207 0.0528106 0.0367982 0.0338333 0.0310139 0.0365619 0.0303689 0.0308131 0.0274135 0.0272726 0.0271148 0.0284438 0.0605311 0.0725092 0.0306854 0.0836823
threshold=1.4175626286123213 2.137698898406367 -0.060410199931878732 2.2469915857112412 -0.94297606354991326 -1.0136885541910605 2.0613698702344556 -0.58128647955779034 -0.86382519157609539 0.10836120495503719 0.13931737264989055 -0.50461035890076145 -0.47084768575527169 -0.99656114255351125 0.63017321739402044 -0.056717185217571124 0.51947920327646269 -0.54135858266554504 -0.11611608446911824 0.79342525274202957 -0.64075165474462714 1.5957311747945517 0.17155679593598766 -0.28980141305250123 1.8224049787917977 1.2235890306768644 1.2107090542217149 0.30972352051963653 0.15912705458079371 0.15636046174960053
decision_type=2 2 2 2 2 2 2 2 2 2 2 2 2 2 2 2 2 2 2 2 2 2 2 2 2 2 2 2 2 2
left_child=3 -2 18 4 22 -6 7 -7 23 14 11 12 13 -11 17 -15 -13 -10 19 -3 -12 24 -1 -9 25 26 28 -28 29 -22
right_child=1 2 -4 -5 5 6 -8 8 9 10 20 16 -14 15 -16 -17 -18 -19 -20 -21 21 -23 -24 -25 -26 -27 27 -29 -30 -31
leaf_value=-0.00068685312037558522 0.0092481404338192585 -0.0010783229226944968 0.0048311270173424141 -0.003449224849464372 0.0055788089675843366 -0.00085855021254343719 0.003218971819028651 0.00028262856372055552 0.0034690527098805261 0.0069787120496455054 -0.0024213761126613432 -0.0022418738496765545 0.014909664324368349 -0.0028713425338667419 -0.0027295822847660913 0.0033270774728239132 0.0025790166467777455 -0.00034006999845608693 0.0019786262503475884 -0.005889552916315469 0.00025518586662656164 0.0034820812933433519 -0.0035781971041638503 0.0053790851246698634 -0.0029153683354736365 -0.0013079586349811186 0.00095107069255077632 0.0073935275934636606 -0.00061644087084209299 0.0069337617916365463
leaf_weight=206 29 56 26 32 32 413 38 21 27 28 51 76 20 28 106 27 20 171 20 22 176 26 39 21 31 119 58 25 323 21
leaf_count=206 29 56 26 32 32 413 38 21 27 28 51 76 20 28 106 27 20 171 20 22 176 26 39 21 31 119 58 25 323 21
internal_value=0 0.00159099 -0.000199794 -0.000114015 -6.32651e-05 7.96528e-05 -1.67179e-05 -8.54854e-05 0.000146715 6.21436e-05 0.000327173 0.0019308 0.00488379 0.00246792 -0.000834945 0.000171518 -0.00123752 0.000179356 -0.00153453 -0.00243534 -5.73108e-05 9.74611e-05 -0.00114711 0.00283086 -1.94049e-05 0.000104937 0.000383767 0.00289157 -1.65167e-05 0.000967115
internal_weight=0 153 124 2135 2103 1858 1826 1788 1375 1333 1029 199 103 83 304 55 96 198 98 78 830 779 245 42 753 722 603 83 520 197
internal_count=2288 153 124 2135 2103 1858 1826 1788 1375 1333 1029 199 103 83 304 55 96 198 98 78 830 779 245 42 753 722 603 83 520 197
is_linear=0
shrinkage=0.1


Tree=25
num_leaves=31
num_cat=0
split_feature=109 241 11 40 2 2 288 192 101 34 7 93 1 313 176 114 363 180 354 357 4 21 174 1 50 245 262 111 0 0
split_gain=0.0373103 0.0344465 0.0564299 0.0463745 0.0414304 0.0450984 0.0247251 0.0346796 0.0735757 0.246147 0.0308485 0.0316085 0.0428425 0.0293758 0.0242991 0.0219667 0.0233562 0.0304658 0.0252631 0.0340688 0.0775279 0.037241 0.0372778 0.0724424 0.0315397 0.0256782 0.0227454 0.0208168 0.0209931 0.0315469
threshold=4.2528057332595939 -1.0413845493273379 -0.93525192380542554 0.41356016995374806 3.327900978840288 3.1726368887711121 2.8179507118334359 -0.95804529681833128 -1.0687579632546116 -0.4937622368426805 -0.57941825260676938 -0.19999542253599448 -0.31352415257917748 -0.1964880042801492 -0.99301817069058951 1.3608391602276224 2.0741805994219384 -0.69621456951953486 -0.16315320428670019 -0.26623768959663502 1.9838540867454058 -0.71312629003196049 -0.44154775983429556 -0.50746980196125646 0.79304743704697533 0.14472037937609575 -0.39847609126097833 0.77780347127221139 1.2360605654018402 1.2003962230567466
decision_type=2 2 2 2 2 2 2 2 2 2 2 2 2 2 2 2 2 2 2 2 2 2 2 2 2 2 2 2 2 2
left_child=1 -1 3 -3 5 6 7 10 9 -9 11 13 -13 -4 -10 16 18 -18 19 27 21 -21 23 -23 -25 26 -24 28 29 -16
right_child=-2 2 4 -5 -6 -7 -8 8 14 -11 -12 12 -14 -15 15 -17 17 -19 -20 20 -22 22 25 24 -26 -27 -28 -29 -30 -31
leaf_value=-0.0019747172961216892 0.0035033819001788896 0.00034882752341218297 -0.0038434705090557423 0.0071587094909045844 0.004094009031541646 -0.0046954327307286714 0.0026774926350988226 -0.0023566402665372672 -0.0030049289421488841 0.011778240854089912 -0.0048052408222463878 -0.00050114005442411015 0.004832205992424861 -0.00083676550963620439 -2.1854197196386025e-05 -0.0018768945142086124 0.0048742562036394425 -0.00039390925888992145 -0.00086112876897595243 0.0038424743043089455 0.0072314571542665372 0.0068002452650530775 -0.0010184348530500481 0.0020899783258625706 -0.0030367250836986518 -0.0019038434248068372 0.0035926342839957218 -0.0014952563070983161 -0.0022770801259967915 0.0018006838274554995
leaf_weight=89 30 20 43 20 24 21 33 28 27 22 21 61 20 133 845 59 23 21 268 33 20 22 23 28 21 80 20 90 36 107
leaf_count=89 30 20 43 20 24 21 33 28 27 22 21 61 20 133 845 59 23 21 268 33 20 22 23 28 21 80 20 90 36 107
internal_value=0 -4.65463e-05 3.25719e-05 0.00375377 -3.73426e-05 -8.44459e-05 -3.7982e-05 -8.16732e-05 8.11522e-05 0.00386271 -0.00112012 -0.000819006 0.000815736 -0.00157136 -2.85854e-05 1.87975e-05 8.71211e-05 0.0023599 2.43449e-05 0.000203445 0.00126278 0.000736901 0.000208633 0.00203315 -0.00010718 -0.000844543 0.00112625 -3.92779e-05 9.33517e-05 0.00018299
internal_weight=0 2258 2169 40 2129 2105 2084 2051 1773 50 278 257 81 176 1723 1696 1637 44 1593 1325 247 227 194 71 49 123 43 1078 988 952
internal_count=2288 2258 2169 40 2129 2105 2084 2051 1773 50 278 257 81 176 1723 1696 1637 44 1593 1325 247 227 194 71 49 123 43 1078 988 952
is_linear=0
shrinkage=0.1


Tree=26
num_leaves=31
num_cat=0
split_feature=219 143 241 122 277 2 103 2 245 139 238 323 209 51 271 214 110 269 243 42 0 93 140 156 22 28 289 13 173 292
split_gain=0.0345701 0.102167 0.0431781 0.040203 0.032392 0.0583531 0.0223715 0.0308335 0.0266948 0.0306285 0.0241566 0.032066 0.0293117 0.0216839 0.0194052 0.0203666 0.0265629 0.0258038 0.0450364 0.0277896 0.0235845 0.0361936 0.0232478 0.0235296 0.0223434 0.021596 0.0216374 0.0215249 0.03635 0.0362054
threshold=0.33584326988395258 -0.0041265700053070868 -0.37101204744835969 -1.0280191327640325 3.1796837546091647 3.327900978840288 -0.74056847037059326 1.6070957075988239 0.57600747543883779 0.6273460952123876 -1.0485379135715565 -2.0222403038747032 2.6955609876691451 -0.62520334581553805 -1.7320113482880395 0.17967576824249445 -0.2465559346450433 0.40291958753685619 -0.01556523916787687 -0.20523647801962583 1.1972716309200482 1.7008865065766539 0.26443764605479247 -0.81027019782986731 1.9781130735795336 1.3636333158169116 -0.629770996749909 -0.067949586919376137 -0.52031362234551615 -0.74776986391454592
decision_type=2 2 2 2 2 2 2 2 2 2 2 2 2 2 2 2 2 2 2 2 2 2 2 2 2 2 2 2 2 2
left_child=3 -2 -3 -1 5 6 8 10 -5 -10 -8 -12 14 -4 -13 17 -17 24 20 -20 22 -22 23 -19 25 27 -27 28 29 -16
right_child=1 2 13 4 -6 -7 7 -9 9 -11 11 12 -14 -15 15 16 -18 18 19 -21 21 -23 -24 -25 -26 26 -28 -29 -30 -31
leaf_value=0.0033646163691159791 0.006696117071745296 0.0028824870128536951 -0.0029170393309472368 -0.0016243750490452079 -0.0041582366183865816 0.0051302266706313403 0.0029316891736995716 0.0031389216550936302 -0.0010575466075291235 0.0030674760757635039 -0.0030121536557807735 0.0025380204957737417 0.0036378727183632911 0.00056589865407934701 -0.00096383623324800298 -0.00027797323853116562 -0.0019902554828746125 0.0027709726616740229 0.001357402701942192 0.0066289854282513263 0.0046014822489614119 -0.00092819643439725043 0.0031309610680909832 -0.00086707561724324493 0.0025726810226452865 0.0039611629295078195 0.00023051746906756584 -0.00086850322755034366 -0.00040475089308911422 0.0037128068541167113
leaf_weight=33 30 37 39 197 20 21 26 30 45 30 38 27 21 33 25 352 122 20 20 20 29 20 20 160 28 22 53 483 238 49
leaf_count=33 30 37 39 197 20 21 26 30 45 30 38 27 21 33 25 352 122 20 20 20 29 20 20 160 28 22 53 483 238 49
internal_value=0 0.00152839 0.000106075 -9.88579e-05 -0.000152872 -0.000114653 -0.000167734 -4.02001e-05 -0.00101311 0.000592462 -9.39924e-05 -0.000139023 -7.51378e-05 -0.00132069 -0.00012133 -0.000164559 -0.000718687 5.67189e-05 0.000878593 0.00399319 0.000378256 0.00234447 -0.000103467 -0.000462848 -0.000207782 -0.000297268 0.00132484 -0.000450297 0.000197118 0.00213286
internal_weight=0 139 109 2149 2116 2096 2075 1803 272 75 1773 1747 1709 72 1688 1661 474 1187 289 40 249 49 200 180 898 870 75 795 312 74
internal_count=2288 139 109 2149 2116 2096 2075 1803 272 75 1773 1747 1709 72 1688 1661 474 1187 289 40 249 49 200 180 898 870 75 795 312 74
is_linear=0
shrinkage=0.1


Tree=27
num_leaves=31
num_cat=0
split_feature=81 176 234 232 358 123 324 0 30 273 0 324 28 245 245 298 337 10 313 140 155 291 0 42 137 174 0 3 137 362
split_gain=0.032152 0.0286254 0.0251156 0.0337145 0.0470231 0.0421274 0.0241927 0.036029 0.0494292 0.0989095 0.0369344 0.0314755 0.031936 0.0281615 0.114212 0.0245544 0.0235997 0.0232058 0.0352065 0.0377384 0.0370544 0.0301628 0.0459739 0.0661427 0.0465111 0.0230019 0.0227749 0.0225215 0.0220047 0.0210533
threshold=-1.0166025058752814 -0.99543537727784659 -0.95100798077754012 3.2757168523604254 2.8873977560644764 -1.0132156729051809 -0.34332195829057427 1.216604109452369 -1.2816944556844672 0.54931656447419419 -0.51674480111987486 -0.41690192242318164 -0.27586714659828876 0.59046095889253836 0.60588829053118354 0.78300833735238573 -0.42771220541259342 0.26700080358605921 -0.37189686022868823 0.52782500683034217 -0.34099452997995144 -0.64232093019733816 0.27695294708752699 -0.4062155496756909 -0.35302364732480424 -0.039682113957465716 0.12451168245302015 -1.0484743275554969 -0.5638723510325675 -0.45256747478709464
decision_type=2 2 2 2 2 2 2 2 2 2 2 2 2 2 2 2 2 2 2 2 2 2 2 2 2 2 2 2 2 2
left_child=-1 -2 27 4 5 -4 7 8 9 -7 -10 17 -13 -8 -15 16 29 18 -12 21 -21 -20 24 -24 -23 -26 -17 -3 -19 -16
right_child=1 2 3 -5 -6 6 13 -9 10 -11 11 12 -14 14 15 26 -18 28 19 20 -22 22 23 -25 25 -27 -28 -29 -30 -31
